{"learner":{"attributes":{"scikit_learn":"{\"_estimator_type\": \"classifier\"}"},"feature_names":["phash","ahash","dhash","chash"],"feature_types":["int","int","int","int"],"gradient_booster":{"model":{"gbtree_model_param":{"num_parallel_tree":"1","num_trees":"100"},"iteration_indptr":[0,1,2,3,4,5,6,7,8,9,10,11,12,13,14,15,16,17,18,19,20,21,22,23,24,25,26,27,28,29,30,31,32,33,34,35,36,37,38,39,40,41,42,43,44,45,46,47,48,49,50,51,52,53,54,55,56,57,58,59,60,61,62,63,64,65,66,67,68,69,70,71,72,73,74,75,76,77,78,79,80,81,82,83,84,85,86,87,88,89,90,91,92,93,94,95,96,97,98,99,100],"tree_info":[0,0,0,0,0,0,0,0,0,0,0,0,0,0,0,0,0,0,0,0,0,0,0,0,0,0,0,0,0,0,0,0,0,0,0,0,0,0,0,0,0,0,0,0,0,0,0,0,0,0,0,0,0,0,0,0,0,0,0,0,0,0,0,0,0,0,0,0,0,0,0,0,0,0,0,0,0,0,0,0,0,0,0,0,0,0,0,0,0,0,0,0,0,0,0,0,0,0,0,0],"trees":[{"base_weights":[-1.7676626E-1,2.7936568E0,-9.6561664E-1,3.1365275E0,-3.3405426E-1,7.6754436E-2,-1.2408564E0,3.7452447E0,1.8006383E0,8.421326E-1,-1.01547E0,1.4533991E0,-3.8529557E-1,-7.0430756E-1,-3.862966E-1,3.856575E0,9.8508364E-1,2.143216E0,4.1448426E-1,2.0584497E0,-7.9631263E-1,-5.820566E-1,-3.5160387E-1,1.8430604E0,1.3911062E-1,-1.5531414E-2,-3.5944247E-1,-3.8239118E-1,-3.5845006E-1,1.2065053E0,8.4788644E-1,1.1405742E0,5.072997E-2,8.295962E-1,1.7177941E0,1.5071102E0,-1.7422618E-2,8.030861E-1,1.0573303E-1,-5.642705E-2,-2.785245E-1,8.868509E-2,-2.4986102E-1,2.420905E0,1.1737367E0,4.077174E-1,-2.498883E-1,5.8492154E-1,-3.6660224E-1,4.5869064E-1,-8.849837E-1,4.1310206E-1,1.0573303E-1,5.2744305E-1,1.4215326E-1,5.072997E-2,6.13749E-1,2.7085647E-1,-1.0824E-1,8.695287E-1,4.7020963E-1,2.384999E-1,7.528398E-1,-1.5687978E-1,2.1506262E-1,-1.0958122E-3,2.6406807E-1,1.17696084E-1,-1.9080622E-1,2.6232708E-1,-1.7307386E-1,-2.0683419E-2,-2.9515877E-1],"categories":[],"categories_nodes":[],"categories_segments":[],"categories_sizes":[],"default_left":[0,0,0,0,0,0,0,0,0,0,0,0,0,0,0,0,0,0,0,0,0,0,0,0,0,0,0,0,0,0,0,0,0,0,0,0,0,0,0,0,0,0,0,0,0,0,0,0,0,0,0,0,0,0,0,0,0,0,0,0,0,0,0,0,0,0,0,0,0,0,0,0,0],"id":0,"left_children":[1,3,5,7,9,11,13,15,17,19,21,23,25,27,-1,29,31,33,35,37,39,41,-1,43,45,47,-1,49,-1,-1,-1,51,-1,-1,53,55,57,-1,-1,-1,-1,-1,-1,59,61,63,-1,65,67,69,71,-1,-1,-1,-1,-1,-1,-1,-1,-1,-1,-1,-1,-1,-1,-1,-1,-1,-1,-1,-1,-1,-1],"loss_changes":[2.5040308E3,2.4154175E2,2.4230359E2,1.5767981E2,1.9336239E1,1.1333252E2,1.5864502E1,3.860034E1,3.0082321E1,1.9585455E1,3.3918E-1,2.2667473E1,4.011575E1,8.353048E0,0E0,1.1136841E1,6.5627384E-1,9.026657E0,6.7105174E0,4.8044243E0,1.9159007E-1,1.5628316E0,0E0,1.0480301E1,3.2947676E0,1.977545E1,0E0,1.5267015E1,0E0,0E0,0E0,5.297432E-1,0E0,0E0,8.5111237E-1,2.5547476E0,3.8460124E0,0E0,0E0,0E0,0E0,0E0,0E0,2.6078568E0,7.060398E0,3.1193986E0,0E0,6.0208426E0,1.2348183E1,6.4494576E0,1.7353535E0,0E0,0E0,0E0,0E0,0E0,0E0,0E0,0E0,0E0,0E0,0E0,0E0,0E0,0E0,0E0,0E0,0E0,0E0,0E0,0E0,0E0,0E0],"parents":[2147483647,0,0,1,1,2,2,3,3,4,4,5,5,6,6,7,7,8,8,9,9,10,10,11,11,12,12,13,13,15,15,16,16,17,17,18,18,19,19,20,20,21,21,23,23,24,24,25,25,27,27,31,31,34,34,35,35,36,36,43,43,44,44,45,45,47,47,48,48,49,49,50,50],"right_children":[2,4,6,8,10,12,14,16,18,20,22,24,26,28,-1,30,32,34,36,38,40,42,-1,44,46,48,-1,50,-1,-1,-1,52,-1,-1,54,56,58,-1,-1,-1,-1,-1,-1,60,62,64,-1,66,68,70,72,-1,-1,-1,-1,-1,-1,-1,-1,-1,-1,-1,-1,-1,-1,-1,-1,-1,-1,-1,-1,-1,-1],"split_conditions":[1E1,6E0,5E0,7E0,4E0,1.4E1,7E0,5E0,4E0,1.2E1,7E0,4E0,2.4E1,2.1E1,-3.862966E-1,1E1,4E0,1E1,2E0,3E0,6E0,5E0,-3.5160387E-1,1.2E1,1.8E1,2E0,-3.5944247E-1,3E0,-3.5845006E-1,1.2065053E0,8.4788644E-1,8E0,5.072997E-2,8.295962E-1,2E1,9E0,8E0,8.030861E-1,1.0573303E-1,-5.642705E-2,-2.785245E-1,8.868509E-2,-2.4986102E-1,2E0,1.7E1,1.1E1,-2.498883E-1,2E0,1.3E1,2.4E1,1.1E1,4.1310206E-1,1.0573303E-1,5.2744305E-1,1.4215326E-1,5.072997E-2,6.13749E-1,2.7085647E-1,-1.0824E-1,8.695287E-1,4.7020963E-1,2.384999E-1,7.528398E-1,-1.5687978E-1,2.1506262E-1,-1.0958122E-3,2.6406807E-1,1.17696084E-1,-1.9080622E-1,2.6232708E-1,-1.7307386E-1,-2.0683419E-2,-2.9515877E-1],"split_indices":[2,1,1,2,3,0,1,3,3,0,2,3,0,2,0,0,1,0,1,3,2,3,0,2,2,3,0,3,0,0,0,0,0,0,0,2,2,0,0,0,0,0,0,3,2,2,0,1,2,0,2,0,0,0,0,0,0,0,0,0,0,0,0,0,0,0,0,0,0,0,0,0,0],"split_type":[0,0,0,0,0,0,0,0,0,0,0,0,0,0,0,0,0,0,0,0,0,0,0,0,0,0,0,0,0,0,0,0,0,0,0,0,0,0,0,0,0,0,0,0,0,0,0,0,0,0,0,0,0,0,0,0,0,0,0,0,0,0,0,0,0,0,0,0,0,0,0,0,0],"sum_hessian":[1.0664772E3,2.2325752E2,8.4321967E2,2.0119861E2,2.205891E1,1.762934E2,6.669263E2,1.3697871E2,6.4219894E1,8.00525E0,1.4053661E1,4.376203E1,1.3253136E2,5.479149E1,6.1213477E2,1.312861E2,5.692622E0,5.1055706E1,1.3164188E1,4.447361E0,3.557889E0,4.9810443E0,9.072617E0,3.3444157E1,1.0317878E1,9.179353E1,4.0737827E1,3.415573E1,2.0635756E1,1.10650345E2,2.0635756E1,4.447361E0,1.2452611E0,1.8501022E1,3.2554684E1,3.0242054E0,1.0139983E1,2.846311E0,1.60105E0,1.0673666E0,2.4905221E0,1.0673666E0,3.9136777E0,1.6544184E1,1.6899973E1,8.538933E0,1.7789445E0,3.362205E1,5.8171482E1,1.28084E1,2.1347334E1,2.846311E0,1.60105E0,3.1131527E1,1.4231555E0,1.2452611E0,1.7789445E0,2.3126278E0,7.8273554E0,9.072617E0,7.4715667E0,1.440945E1,2.4905221E0,1.9568388E0,6.582094E0,1.1563139E1,2.205891E1,1.5121028E1,4.3050457E1,9.250511E0,3.557889E0,2.4905221E0,1.8856812E1],"tree_param":{"num_deleted":"0","num_feature":"4","num_nodes":"73","size_leaf_vector":"1"}},{"base_weights":[-2.0146409E-1,1.1153687E0,-1.0091244E0,1.3427086E0,-6.349074E-1,-4.363962E-1,-3.587084E-1,1.6750208E0,7.479411E-1,7.0298564E-1,-8.4937847E-1,-1.20023705E-1,-3.216893E-1,5.650129E-1,1.4324348E0,8.042768E-1,-6.748174E-1,5.446749E-1,-2.6951075E-1,-3.4421176E-1,-1.0626628E0,1.603366E-1,-6.448188E-1,4.6340036E-1,6.8648547E-1,8.519926E-1,-7.268139E-1,4.9108773E-2,-2.9268083E-1,4.4885516E-1,-2.8309426E-1,-4.84426E-1,-3.4733027E-1,3.8903528E-1,-5.116171E-1,-1.6720286E-1,-8.960865E-1,8.592401E-2,2.705782E-1,3.2312196E-1,1.9396512E-1,-2.5580457E-1,-6.362387E-2,4.6604815E-1,-1.04162954E-1,7.284462E-2,-2.1753919E-1,5.0039414E-2,2.5647584E-1,-1.7515069E-2,-1.8973422E-1,9.858019E-2,-1.3667998E-1,-2.8835386E-1,-9.06631E-3],"categories":[],"categories_nodes":[],"categories_segments":[],"categories_sizes":[],"default_left":[0,0,0,0,0,0,0,0,0,0,0,0,0,0,0,0,0,0,0,0,0,0,0,0,0,0,0,0,0,0,0,0,0,0,0,0,0,0,0,0,0,0,0,0,0,0,0,0,0,0,0,0,0,0,0],"id":1,"left_children":[1,3,5,7,9,11,-1,13,15,17,19,21,-1,-1,23,25,27,-1,-1,29,31,33,35,-1,37,39,41,-1,-1,43,-1,45,-1,47,49,51,53,-1,-1,-1,-1,-1,-1,-1,-1,-1,-1,-1,-1,-1,-1,-1,-1,-1,-1],"loss_changes":[1.0657743E3,1.524682E2,6.583423E1,6.5463745E1,1.3360483E1,3.0885946E1,0E0,8.20697E0,1.0385605E1,1.3554951E1,3.8134594E0,1.5415575E1,0E0,0E0,7.63501E0,9.28244E0,1.4765177E0,0E0,0E0,6.6008816E0,9.1265106E-1,1.074634E1,4.2230053E0,0E0,1.0675759E0,4.642502E0,8.6318254E-2,0E0,0E0,6.054144E0,0E0,1.1395425E0,0E0,5.2179165E0,9.4115686E-1,2.1215832E0,1.3037376E0,0E0,0E0,0E0,0E0,0E0,0E0,0E0,0E0,0E0,0E0,0E0,0E0,0E0,0E0,0E0,0E0,0E0,0E0],"parents":[2147483647,0,0,1,1,2,2,3,3,4,4,5,5,7,7,8,8,9,9,10,10,11,11,14,14,15,15,16,16,19,19,20,20,21,21,22,22,24,24,25,25,26,26,29,29,31,31,33,33,34,34,35,35,36,36],"right_children":[2,4,6,8,10,12,-1,14,16,18,20,22,-1,-1,24,26,28,-1,-1,30,32,34,36,-1,38,40,42,-1,-1,44,-1,46,-1,48,50,52,54,-1,-1,-1,-1,-1,-1,-1,-1,-1,-1,-1,-1,-1,-1,-1,-1,-1,-1],"split_conditions":[1.3E1,6E0,7E0,8E0,2E0,2.4E1,-3.587084E-1,4E0,7E0,1.4E1,4E0,4E0,-3.216893E-1,5.650129E-1,4E0,2.2E1,1E1,5.446749E-1,-2.6951075E-1,1.4E1,7E0,1.9E1,3E0,4.6340036E-1,3E0,2E0,1.2E1,4.9108773E-2,-2.9268083E-1,7E0,-2.8309426E-1,5E0,-3.4733027E-1,4E0,1.8E1,1.6E1,2.5E1,8.592401E-2,2.705782E-1,3.2312196E-1,1.9396512E-1,-2.5580457E-1,-6.362387E-2,4.6604815E-1,-1.04162954E-1,7.284462E-2,-2.1753919E-1,5.0039414E-2,2.5647584E-1,-1.7515069E-2,-1.8973422E-1,9.858019E-2,-1.3667998E-1,-2.8835386E-1,-9.06631E-3],"split_indices":[2,1,1,2,3,0,0,2,3,0,3,3,0,0,3,0,2,0,0,0,2,2,1,0,1,3,2,0,0,1,0,3,0,1,0,0,2,0,0,0,0,0,0,0,0,0,0,0,0,0,0,0,0,0,0],"split_type":[0,0,0,0,0,0,0,0,0,0,0,0,0,0,0,0,0,0,0,0,0,0,0,0,0,0,0,0,0,0,0,0,0,0,0,0,0,0,0,0,0,0,0,0,0,0,0,0,0,0,0,0,0,0,0],"sum_hessian":[1.00002954E3,3.8003253E2,6.19997E2,3.365514E2,4.348112E1,1.5316235E2,4.6683466E2,2.1474915E2,1.21802246E2,5.6925607E0,3.778856E1,1.0307128E2,5.0091084E1,1.1188673E2,1.0286243E2,1.1758119E2,4.2210555E0,3.2799332E0,2.4126275E0,1.19941435E1,2.5794416E1,6.763385E1,3.5437428E1,8.847938E1,1.4383044E1,1.1445771E2,3.1234827E0,1.2347257E0,2.9863298E0,5.2713E0,6.7228436E0,4.503957E0,2.129046E1,5.0774014E1,1.6859837E1,1.2790454E1,2.2646975E1,5.849688E0,8.533356E0,5.259375E1,6.186396E1,1.9822227E0,1.1412599E0,1.8092607E0,3.462039E0,1.1178436E0,3.386113E0,3.5295357E1,1.5478655E1,3.86088E0,1.2998958E1,4.652541E0,8.137913E0,2.0961107E1,1.6858678E0],"tree_param":{"num_deleted":"0","num_feature":"4","num_nodes":"55","size_leaf_vector":"1"}},{"base_weights":[-1.8689805E-1,8.046477E-1,-9.14811E-1,1.1963601E0,2.8927636E-1,-3.0716914E-1,-1.1200006E0,1.2655113E0,7.8798905E-2,5.9948325E-1,-4.0868583E-1,-3.4779467E-2,-2.9683155E-1,-7.303247E-1,-3.4043613E-1,1.4241954E0,9.007986E-1,5.59853E-1,-5.784171E-1,1.0676744E0,4.01511E-1,-7.2858687E-3,-9.948044E-1,2.0379631E-1,-4.7643322E-1,-5.431284E-1,-2.9032978E-1,4.4815996E-1,1.1192365E0,9.348084E-1,-6.164851E-2,3.5130617E-1,2.2716632E-1,-7.117577E-2,-2.72604E-1,8.608118E-1,4.9701247E-1,4.6680266E-1,-2.7230906E-1,7.759147E-1,-1.5665309E-1,-5.6090194E-1,-3.2320577E-1,4.6683434E-1,-1.0234927E-1,-3.2972213E-2,-6.641484E-1,-2.9663926E-1,-1.4615686E-1,3.650217E-1,1.8556912E-1,3.5664266E-1,2.533668E-1,2.1871714E-1,-1.5161146E-1,-1.098098E-1,8.8176295E-2,3.7249509E-1,2.1631503E-1,1.4808595E-1,-2.1755463E-1,3.414922E-1,3.5150368E-2,-5.7238415E-3,-2.3068717E-1,-2.5007126E-1,5.387937E-3,4.791661E-2,2.0247842E-1,1.0080453E-1,-2.0493574E-1,-9.5085315E-2,1.6808671E-1,-2.4154282E-1,-6.9045937E-3,5.566999E-2,-1.6555546E-1],"categories":[],"categories_nodes":[],"categories_segments":[],"categories_sizes":[],"default_left":[0,0,0,0,0,0,0,0,0,0,0,0,0,0,0,0,0,0,0,0,0,0,0,0,0,0,0,0,0,0,0,0,0,0,0,0,0,0,0,0,0,0,0,0,0,0,0,0,0,0,0,0,0,0,0,0,0,0,0,0,0,0,0,0,0,0,0,0,0,0,0,0,0,0,0,0,0],"id":2,"left_children":[1,3,5,7,9,11,13,15,17,19,21,23,-1,25,-1,27,29,31,33,35,37,39,41,43,45,47,-1,-1,49,51,-1,53,-1,55,-1,57,-1,59,-1,61,63,65,-1,67,69,71,73,-1,75,-1,-1,-1,-1,-1,-1,-1,-1,-1,-1,-1,-1,-1,-1,-1,-1,-1,-1,-1,-1,-1,-1,-1,-1,-1,-1,-1,-1],"loss_changes":[6.34667E2,7.482419E1,6.286435E1,1.6225006E1,3.534518E1,2.4005007E1,1.3527222E0,1.0226166E1,4.5526123E0,1.001173E1,1.1868291E1,9.947074E0,0E0,2.1430111E-1,0E0,1.2356873E0,2.5629463E0,7.277489E-2,9.646895E-1,2.579277E0,7.327758E0,3.744163E0,1.3033676E-1,4.99183E0,2.7323494E0,1.9054894E0,0E0,0E0,6.8445206E-1,4.0155792E-1,0E0,2.2672694E0,0E0,4.8523265E-1,0E0,5.104027E-1,0E0,2.8382244E0,0E0,1.0907683E0,2.2461443E0,8.616656E-1,0E0,2.0141072E0,7.661749E0,2.0126467E0,2.0781183E0,0E0,1.08509E0,0E0,0E0,0E0,0E0,0E0,0E0,0E0,0E0,0E0,0E0,0E0,0E0,0E0,0E0,0E0,0E0,0E0,0E0,0E0,0E0,0E0,0E0,0E0,0E0,0E0,0E0,0E0,0E0],"parents":[2147483647,0,0,1,1,2,2,3,3,4,4,5,5,6,6,7,7,8,8,9,9,10,10,11,11,13,13,15,15,16,16,17,17,18,18,19,19,20,20,21,21,22,22,23,23,24,24,25,25,28,28,29,29,31,31,33,33,35,35,37,37,39,39,40,40,41,41,43,43,44,44,45,45,46,46,48,48],"right_children":[2,4,6,8,10,12,14,16,18,20,22,24,-1,26,-1,28,30,32,34,36,38,40,42,44,46,48,-1,-1,50,52,-1,54,-1,56,-1,58,-1,60,-1,62,64,66,-1,68,70,72,74,-1,76,-1,-1,-1,-1,-1,-1,-1,-1,-1,-1,-1,-1,-1,-1,-1,-1,-1,-1,-1,-1,-1,-1,-1,-1,-1,-1,-1,-1],"split_conditions":[1.6E1,8E0,6E0,5E0,4E0,2.4E1,7E0,8E0,4E0,1E1,6E0,1.7E1,-2.9683155E-1,2.3E1,-3.4043613E-1,5E0,7E0,1E1,6E0,3E0,8E0,1E0,5E0,3E0,2E0,1.4E1,-2.9032978E-1,4.4815996E-1,3E0,4E0,-6.164851E-2,6E0,2.2716632E-1,6E0,-2.72604E-1,6E0,4.9701247E-1,2E1,-2.7230906E-1,1.2E1,7E0,1.5E1,-3.2320577E-1,1.8E1,3E0,2.2E1,2.3E1,-2.9663926E-1,4E0,3.650217E-1,1.8556912E-1,3.5664266E-1,2.533668E-1,2.1871714E-1,-1.5161146E-1,-1.098098E-1,8.8176295E-2,3.7249509E-1,2.1631503E-1,1.4808595E-1,-2.1755463E-1,3.414922E-1,3.5150368E-2,-5.7238415E-3,-2.3068717E-1,-2.5007126E-1,5.387937E-3,4.791661E-2,2.0247842E-1,1.0080453E-1,-2.0493574E-1,-9.5085315E-2,1.6808671E-1,-2.4154282E-1,-6.9045937E-3,5.566999E-2,-1.6555546E-1],"split_indices":[0,2,1,3,3,0,1,0,1,0,1,2,0,2,0,2,1,0,3,1,1,1,3,1,3,2,0,0,3,2,0,3,0,2,0,0,0,2,0,2,3,2,0,0,3,0,2,0,3,0,0,0,0,0,0,0,0,0,0,0,0,0,0,0,0,0,0,0,0,0,0,0,0,0,0,0,0],"split_type":[0,0,0,0,0,0,0,0,0,0,0,0,0,0,0,0,0,0,0,0,0,0,0,0,0,0,0,0,0,0,0,0,0,0,0,0,0,0,0,0,0,0,0,0,0,0,0,0,0,0,0,0,0,0,0,0,0,0,0,0,0,0,0,0,0,0,0,0,0,0,0,0,0,0,0,0,0],"sum_hessian":[8.773138E2,3.7135602E2,5.0595773E2,2.1023996E2,1.6111604E2,1.2835329E2,3.7760446E2,1.9786436E2,1.2375604E1,1.1163939E2,4.947665E1,9.248177E1,3.587151E1,1.564688E1,3.6195758E2,1.3585135E2,6.201302E1,7.2309794E0,5.144624E0,3.187176E1,7.976763E1,2.9966614E1,1.9510036E1,6.039547E1,3.2086308E1,1.0587343E1,5.0595374E0,1.0741311E2,2.8438232E1,6.0313858E1,1.6991651E0,4.867617E0,2.3633626E0,2.5080674E0,2.636557E0,2.5409576E1,6.4621835E0,7.6591385E1,3.1762507E0,4.1278305E0,2.5838783E1,4.364345E0,1.5145691E1,3.220247E1,2.8193E1,9.892283E0,2.2194025E1,4.2853947E0,6.3019485E0,2.2605722E1,5.83251E0,1.2621297E1,4.769256E1,3.481448E0,1.386169E0,1.3860841E0,1.1219832E0,4.7049527E0,2.0704622E1,7.547914E1,1.1122398E0,2.1932702E0,1.9345604E0,2.1940346E1,3.898437E0,2.667718E0,1.6966274E0,1.372062E1,1.8481848E1,1.6306389E1,1.1886611E1,7.0049453E0,2.8873382E0,1.7983406E1,4.21062E0,3.7655635E0,2.5363853E0],"tree_param":{"num_deleted":"0","num_feature":"4","num_nodes":"77","size_leaf_vector":"1"}},{"base_weights":[-1.6908549E-1,4.5766708E-1,-1.0063915E0,9.864832E-1,5.594816E-2,-4.1929626E-1,-1.0877715E0,1.2284943E0,7.570152E-1,1.8575118E-1,-9.097364E-1,2.646993E-1,-7.515088E-1,-2.8255025E-1,-3.2858944E-1,3.9305365E-1,6.8578035E-1,8.0223423E-1,1.9282155E-1,2.594109E-1,-4.7132307E-1,-6.081908E-1,-2.9315156E-1,8.423596E-1,-7.5650096E-1,-3.165772E-1,-6.2544453E-1,1.6977933E-1,-2.3333888E-1,9.442323E-1,-4.272522E-1,9.4187033E-1,6.141874E-1,-2.0746557E-1,4.992606E-1,3.6058804E-1,-1.2088188E-1,-6.615357E-1,-2.7946132E-1,-8.158386E-1,1.1138027E-1,3.0297303E-1,-1.3659996E-2,-8.438429E-2,-2.5626487E-1,-3.3553067E-1,-8.069651E-1,7.370255E-2,3.1332645E-1,-2.9491988E-1,9.759594E-2,2.280041E-1,3.8912174E-1,2.1892194E-1,1.7035939E-2,3.8237814E-2,-1.5395902E-1,8.933398E-3,1.9419852E-1,2.2443013E-1,7.864523E-2,1.7543389E-1,-6.503074E-2,-9.395548E-3,-3.0893576E-1,-2.1814753E-1,-1.2143024E-2,-2.7437836E-1,-7.635991E-2,-2.3287094E-1,-4.27129E-2,-4.418911E-2,-2.78686E-1],"categories":[],"categories_nodes":[],"categories_segments":[],"categories_sizes":[],"default_left":[0,0,0,0,0,0,0,0,0,0,0,0,0,0,0,0,0,0,0,0,0,0,0,0,0,0,0,0,0,0,0,0,0,0,0,0,0,0,0,0,0,0,0,0,0,0,0,0,0,0,0,0,0,0,0,0,0,0,0,0,0,0,0,0,0,0,0,0,0,0,0,0,0],"id":3,"left_children":[1,3,5,7,9,11,13,15,17,19,21,23,25,27,-1,-1,29,31,33,35,37,39,-1,41,43,-1,45,-1,-1,47,49,51,53,55,57,59,61,63,65,67,-1,-1,-1,-1,-1,69,71,-1,-1,-1,-1,-1,-1,-1,-1,-1,-1,-1,-1,-1,-1,-1,-1,-1,-1,-1,-1,-1,-1,-1,-1,-1,-1],"loss_changes":[3.9931622E2,9.243046E1,1.5104187E1,9.504135E0,3.1314564E1,9.577997E0,1.420227E0,3.0841675E0,2.3722687E0,1.0763501E1,7.822037E-3,9.03339E0,4.1378784E-1,2.1170914E0,0E0,0E0,4.3879128E0,1.8210526E0,1.1665708E0,7.675228E0,6.368909E-1,1.9421513E0,0E0,1.4687672E0,2.2979975E-2,0E0,9.0134335E-1,0E0,0E0,5.519419E-1,1.6996135E0,2.280655E0,2.6518526E0,5.225129E-1,3.423351E-1,5.7894745E0,2.9976895E0,2.4221783E0,1.3552212E0,1.5317392E-1,0E0,0E0,0E0,0E0,0E0,7.6520324E-1,9.081001E-1,0E0,0E0,0E0,0E0,0E0,0E0,0E0,0E0,0E0,0E0,0E0,0E0,0E0,0E0,0E0,0E0,0E0,0E0,0E0,0E0,0E0,0E0,0E0,0E0,0E0,0E0],"parents":[2147483647,0,0,1,1,2,2,3,3,4,4,5,5,6,6,7,7,8,8,9,9,10,10,11,11,12,12,13,13,16,16,17,17,18,18,19,19,20,20,21,21,23,23,24,24,26,26,29,29,30,30,31,31,32,32,33,33,34,34,35,35,36,36,37,37,38,38,39,39,45,45,46,46],"right_children":[2,4,6,8,10,12,14,16,18,20,22,24,26,28,-1,-1,30,32,34,36,38,40,-1,42,44,-1,46,-1,-1,48,50,52,54,56,58,60,62,64,66,68,-1,-1,-1,-1,-1,70,72,-1,-1,-1,-1,-1,-1,-1,-1,-1,-1,-1,-1,-1,-1,-1,-1,-1,-1,-1,-1,-1,-1,-1,-1,-1,-1],"split_conditions":[6E0,8E0,8E0,6E0,2.4E1,1.4E1,1E1,5E0,5E0,1.9E1,2.6E1,5E0,2E0,3E0,-3.2858944E-1,3.9305365E-1,4E0,1E1,5E0,4E0,2.1E1,2.5E1,-2.9315156E-1,1.2E1,6E0,-3.165772E-1,4E0,1.6977933E-1,-2.3333888E-1,1E0,4E0,3E0,4E0,4E0,1E1,1E1,1E0,1.8E1,2E1,5E0,1.1138027E-1,3.0297303E-1,-1.3659996E-2,-8.438429E-2,-2.5626487E-1,1.2E1,1.6E1,7.370255E-2,3.1332645E-1,-2.9491988E-1,9.759594E-2,2.280041E-1,3.8912174E-1,2.1892194E-1,1.7035939E-2,3.8237814E-2,-1.5395902E-1,8.933398E-3,1.9419852E-1,2.2443013E-1,7.864523E-2,1.7543389E-1,-6.503074E-2,-9.395548E-3,-3.0893576E-1,-2.1814753E-1,-1.2143024E-2,-2.7437836E-1,-7.635991E-2,-2.3287094E-1,-4.27129E-2,-4.418911E-2,-2.78686E-1],"split_indices":[1,2,1,0,0,0,0,2,3,2,0,3,3,3,0,0,3,0,2,3,2,2,0,2,3,0,3,0,0,1,0,1,1,2,0,0,1,0,0,1,0,0,0,0,0,2,0,0,0,0,0,0,0,0,0,0,0,0,0,0,0,0,0,0,0,0,0,0,0,0,0,0,0],"split_type":[0,0,0,0,0,0,0,0,0,0,0,0,0,0,0,0,0,0,0,0,0,0,0,0,0,0,0,0,0,0,0,0,0,0,0,0,0,0,0,0,0,0,0,0,0,0,0,0,0,0,0,0,0,0,0,0,0,0,0,0,0,0,0,0,0,0,0,0,0,0,0,0,0],"sum_hessian":[7.5903815E2,4.343589E2,3.246793E2,1.8688756E2,2.4747134E2,4.0275333E1,2.8440393E2,8.8838905E1,9.804865E1,2.188607E2,2.8610634E1,1.3233002E1,2.7042332E1,2.990682E0,2.8141327E2,7.5987785E1,1.2851118E1,9.0382744E1,7.6659074E0,1.9734323E2,2.1517477E1,7.059973E0,2.1550661E1,8.56384E0,4.6691623E0,5.7696714E0,2.127266E1,1.049646E0,1.9410357E0,1.05524435E1,2.298674E0,4.9567314E1,4.0815434E1,3.4640107E0,4.2018967E0,1.5591402E2,4.1429214E1,9.575902E0,1.1941576E1,5.9628778E0,1.097095E0,7.0887313E0,1.4751084E0,1.4578342E0,3.2113278E0,9.287563E0,1.1985097E1,1.7566338E0,8.79581E0,1.14601E0,1.1526641E0,3.485955E1,1.4707762E1,3.3550945E1,7.2644854E0,1.9313445E0,1.5326661E0,1.295459E0,2.9064376E0,3.0246113E1,1.2566791E2,4.346137E0,3.708308E1,3.9319224E0,5.6439795E0,3.445088E0,8.496488E0,4.535497E0,1.4273803E0,1.9102812E0,7.3772826E0,2.2149436E0,9.770153E0],"tree_param":{"num_deleted":"0","num_feature":"4","num_nodes":"73","size_leaf_vector":"1"}},{"base_weights":[-1.5165108E-1,3.1599122E-1,-1.0207783E0,7.9634994E-1,2.7659186E-3,1.8461095E-1,-1.0312686E0,1.0770683E0,5.629189E-1,1.06986664E-1,-2.538491E-1,-5.438664E-1,-1.0576218E0,3.533709E-1,5.141558E-1,6.111807E-1,5.794467E-2,2.4765006E-1,-1.1121912E-1,-1.763236E-1,-2.7660322E-1,-3.452699E-1,-3.192983E-1,7.9435605E-1,-4.5448223E-1,7.6776284E-1,4.285405E-1,2.253849E-1,-3.2253125E-1,3.323346E-1,-4.562166E-2,1.21292956E-1,-2.7035156E-1,-2.4115925E-1,1.7757381E-1,5.2703634E-2,-2.052613E-1,6.0739238E-2,2.654452E-1,-2.5675854E-1,1.5874663E-2,1.5505058E-1,2.9878357E-1,1.6223955E-1,1.6184901E-3,-4.962829E-2,2.3161705E-1,5.827601E-2,-2.046703E-1,1.753377E-1,6.846891E-2,8.5225284E-2,-8.843822E-2,1.9531009E-1,1.7150696E-2,-6.322041E-2,-2.3033513E-1,2.3042646E-1,-2.1567605E-1],"categories":[],"categories_nodes":[],"categories_segments":[],"categories_sizes":[],"default_left":[0,0,0,0,0,0,0,0,0,0,0,0,0,0,0,0,0,0,0,0,0,0,0,0,0,0,0,0,0,0,0,0,0,0,0,0,0,0,0,0,0,0,0,0,0,0,0,0,0,0,0,0,0,0,0,0,0,0,0],"id":4,"left_children":[1,3,5,7,9,-1,11,13,15,17,-1,19,21,-1,23,25,27,29,31,33,-1,35,-1,37,39,41,43,45,47,49,51,53,55,-1,57,-1,-1,-1,-1,-1,-1,-1,-1,-1,-1,-1,-1,-1,-1,-1,-1,-1,-1,-1,-1,-1,-1,-1,-1],"loss_changes":[2.6849374E2,6.465796E1,4.6004333E0,1.0508423E1,2.319441E1,0E0,2.3784943E0,3.7033157E0,2.2725945E0,7.193453E0,0E0,1.7629614E0,6.695862E-1,0E0,3.972765E0,2.1400719E0,6.69388E-1,3.5484219E0,3.4442172E0,1.9776345E0,0E0,7.3904014E-1,0E0,3.929882E-1,7.8290033E-1,2.0745087E0,1.997644E0,1.6430293E0,7.4105597E-1,2.7672262E0,2.774712E0,1.258801E0,1.4706454E0,0E0,3.7825131E0,0E0,0E0,0E0,0E0,0E0,0E0,0E0,0E0,0E0,0E0,0E0,0E0,0E0,0E0,0E0,0E0,0E0,0E0,0E0,0E0,0E0,0E0,0E0,0E0],"parents":[2147483647,0,0,1,1,2,2,3,3,4,4,6,6,7,7,8,8,9,9,11,11,12,12,14,14,15,15,16,16,17,17,18,18,19,19,21,21,23,23,24,24,25,25,26,26,27,27,28,28,29,29,30,30,31,31,32,32,34,34],"right_children":[2,4,6,8,10,-1,12,14,16,18,-1,20,22,-1,24,26,28,30,32,34,-1,36,-1,38,40,42,44,46,48,50,52,54,56,-1,58,-1,-1,-1,-1,-1,-1,-1,-1,-1,-1,-1,-1,-1,-1,-1,-1,-1,-1,-1,-1,-1,-1,-1,-1],"split_conditions":[7E0,8E0,6E0,6E0,2.4E1,1.8461095E-1,8E0,5E0,5E0,1.6E1,-2.538491E-1,1.8E1,1E1,3.533709E-1,4E0,1E1,4E0,4E0,2E0,1.2E1,-2.7660322E-1,9E0,-3.192983E-1,1E0,4E0,2E0,4E0,6E0,6E0,1E1,3E0,1E1,7E0,-2.4115925E-1,6E0,5.2703634E-2,-2.052613E-1,6.0739238E-2,2.654452E-1,-2.5675854E-1,1.5874663E-2,1.5505058E-1,2.9878357E-1,1.6223955E-1,1.6184901E-3,-4.962829E-2,2.3161705E-1,5.827601E-2,-2.046703E-1,1.753377E-1,6.846891E-2,8.5225284E-2,-8.843822E-2,1.9531009E-1,1.7150696E-2,-6.322041E-2,-2.3033513E-1,2.3042646E-1,-2.1567605E-1],"split_indices":[1,2,0,0,0,0,1,2,3,0,0,0,0,0,3,0,1,3,3,0,0,1,0,1,0,1,1,3,3,0,1,2,3,0,3,0,0,0,0,0,0,0,0,0,0,0,0,0,0,0,0,0,0,0,0,0,0,0,0],"split_type":[0,0,0,0,0,0,0,0,0,0,0,0,0,0,0,0,0,0,0,0,0,0,0,0,0,0,0,0,0,0,0,0,0,0,0,0,0,0,0,0,0,0,0,0,0,0,0,0,0,0,0,0,0,0,0,0,0,0,0],"sum_hessian":[6.5880414E2,4.2874838E2,2.3005579E2,1.6861694E2,2.6013144E2,1.098291E0,2.2895749E2,7.491361E1,9.370333E1,2.3246617E2,2.7665258E1,1.2854328E1,2.1610316E2,6.2606403E1,1.2307209E1,8.5337105E1,8.366231E0,1.4126602E2,9.120015E1,7.262106E0,5.5922217E0,2.5048366E0,2.1359833E2,9.685411E0,2.6217973E0,4.4221333E1,4.1115772E1,6.092612E0,2.273619E0,1.0951072E2,3.1755295E1,3.715293E1,5.404722E1,2.160171E0,5.101935E0,1.1771729E0,1.3276635E0,1.7133057E0,7.972106E0,1.0803858E0,1.5414116E0,2.2615988E1,2.1605345E1,3.2275284E1,8.840486E0,3.9594297E0,2.1331818E0,1.1218382E0,1.1517808E0,3.0655111E1,7.885561E1,1.360844E1,1.8146854E1,3.0233893E0,3.4129543E1,4.9534225E1,4.512994E0,3.1622283E0,1.9397066E0],"tree_param":{"num_deleted":"0","num_feature":"4","num_nodes":"59","size_leaf_vector":"1"}},{"base_weights":[-1.325713E-1,2.4460956E-1,-9.862289E-1,8.042343E-1,5.445117E-2,-3.8791224E-1,-1.029449E0,1.0127761E0,4.41733E-1,1.23178326E-1,-7.6931256E-1,-6.0888708E-2,-2.6067877E-1,-2.080542E-1,-3.123361E-1,3.1116623E-1,9.8103285E-2,5.2051985E-1,-2.5287575E-1,2.336634E-1,-9.203025E-2,-4.8757493E-1,-8.3609736E-1,2.5801337E-1,-2.2175193E-1,1.3703269E-1,-2.0215224E-1,7.4664676E-1,2.5012672E-1,2.185633E-1,1.9944014E-1,1.0234086E-2,-3.589163E-1,-2.1285406E-1,8.6302474E-2,-5.631518E-1,-2.893834E-1,-1.8696955E-1,5.15272E-1,2.9971382E-1,1.4431709E-1,-4.2250194E-2,1.9431382E-1,6.61137E-2,-7.68021E-2,1.5008639E-2,-2.5454432E-1,-7.607591E-3,-1.8076184E-1,-2.4634635E-1,-6.0271423E-2,1.5584391E-1,-2.3846106E-1,2.2493143E-1,-3.8690496E-2],"categories":[],"categories_nodes":[],"categories_segments":[],"categories_sizes":[],"default_left":[0,0,0,0,0,0,0,0,0,0,0,0,0,0,0,0,0,0,0,0,0,0,0,0,0,0,0,0,0,0,0,0,0,0,0,0,0,0,0,0,0,0,0,0,0,0,0,0,0,0,0,0,0,0,0],"id":5,"left_children":[1,3,5,7,9,11,13,15,17,19,21,23,-1,25,-1,-1,-1,27,-1,29,31,33,35,37,-1,-1,-1,39,41,-1,43,45,47,-1,-1,49,-1,51,53,-1,-1,-1,-1,-1,-1,-1,-1,-1,-1,-1,-1,-1,-1,-1,-1],"loss_changes":[1.8636285E2,4.2705177E1,4.1864624E0,7.248993E0,1.713032E1,2.0788398E0,1.3631592E0,7.312317E-1,4.3813744E0,6.6457E0,3.092289E-2,2.1683116E0,0E0,1.409719E0,0E0,0E0,0E0,2.095148E0,0E0,2.9772434E0,2.6026287E0,1.3853838E0,6.865692E-2,8.930928E-1,0E0,0E0,0E0,8.4804344E-1,2.9669445E0,0E0,1.7140632E0,2.4282608E0,2.1306496E0,0E0,0E0,5.8147717E-1,0E0,1.8230128E0,8.032E-1,0E0,0E0,0E0,0E0,0E0,0E0,0E0,0E0,0E0,0E0,0E0,0E0,0E0,0E0,0E0,0E0],"parents":[2147483647,0,0,1,1,2,2,3,3,4,4,5,5,6,6,7,7,8,8,9,9,10,10,11,11,13,13,17,17,19,19,20,20,21,21,22,22,23,23,27,27,28,28,30,30,31,31,32,32,35,35,37,37,38,38],"right_children":[2,4,6,8,10,12,14,16,18,20,22,24,-1,26,-1,-1,-1,28,-1,30,32,34,36,38,-1,-1,-1,40,42,-1,44,46,48,-1,-1,50,-1,52,54,-1,-1,-1,-1,-1,-1,-1,-1,-1,-1,-1,-1,-1,-1,-1,-1],"split_conditions":[7E0,8E0,8E0,5E0,2.4E1,1.8E1,1E1,5E0,6E0,1.3E1,2.6E1,6E0,-2.6067877E-1,3E0,-3.123361E-1,3.1116623E-1,9.8103285E-2,2E0,-2.5287575E-1,4E0,4E0,2.5E1,2.3E1,1.2E1,-2.2175193E-1,1.3703269E-1,-2.0215224E-1,6E0,2E0,2.185633E-1,6E0,2.4E1,3E0,-2.1285406E-1,8.6302474E-2,4E0,-2.893834E-1,1E1,1.4E1,2.9971382E-1,1.4431709E-1,-4.2250194E-2,1.9431382E-1,6.61137E-2,-7.68021E-2,1.5008639E-2,-2.5454432E-1,-7.607591E-3,-1.8076184E-1,-2.4634635E-1,-6.0271423E-2,1.5584391E-1,-2.3846106E-1,2.2493143E-1,-3.8690496E-2],"split_indices":[1,0,1,2,0,0,0,3,3,2,0,3,0,3,0,0,0,3,0,2,3,2,2,0,0,0,0,0,1,0,1,2,1,0,0,1,0,0,2,0,0,0,0,0,0,0,0,0,0,0,0,0,0,0,0],"split_type":[0,0,0,0,0,0,0,0,0,0,0,0,0,0,0,0,0,0,0,0,0,0,0,0,0,0,0,0,0,0,0,0,0,0,0,0,0,0,0,0,0,0,0,0,0,0,0,0,0,0,0,0,0,0,0],"sum_hessian":[5.7704736E2,4.0071054E2,1.7633685E2,1.0080835E2,2.999022E2,1.2551782E1,1.6378508E2,6.2854935E1,3.795341E1,2.775929E2,2.230929E1,8.142569E0,4.409212E0,2.558399E0,1.6122667E2,6.0196686E1,2.658249E0,3.63207E1,1.632707E0,1.8336838E2,9.422452E1,5.865568E0,1.6443722E1,5.9600167E0,2.182552E0,1.0619683E0,1.4964305E0,1.8820217E1,1.7500486E1,1.054829E1,1.7282008E2,6.881711E1,2.540741E1,4.626024E0,1.2395444E0,6.986789E0,9.456933E0,2.2834804E0,3.6765366E0,8.2337675E0,1.058645E1,9.1493635E0,8.351123E0,1.6571747E2,7.1026254E0,6.666925E1,2.147857E0,1.119028E1,1.4217129E1,3.3406484E0,3.646141E0,1.1234072E0,1.1600732E0,2.5753267E0,1.1012099E0],"tree_param":{"num_deleted":"0","num_feature":"4","num_nodes":"55","size_leaf_vector":"1"}},{"base_weights":[-1.159394E-1,1.6791517E-1,-1.0082358E0,8.715358E-1,4.724721E-2,-1.8123467E-1,-3.0680454E-1,3.0726796E-1,5.2009207E-1,1.014478E-1,-7.3678255E-1,1.1446539E-1,-1.8524617E-1,2.4909051E-1,1.4432582E-1,3.868435E-1,2.8978419E-2,-5.707304E-1,-2.793491E-1,-2.2903673E-1,4.5511648E-1,3.0275056E-1,3.2531026E-1,5.2360754E-2,-5.584345E-1,-6.8114704E-1,1.2568328E-1,-6.5068714E-2,2.0169382E-1,6.419212E-2,1.4820857E-1,4.805907E-2,-1.4003273E-2,7.5957894E-2,-2.2573902E-1,-2.6591006E-1,-1.3482547E-1],"categories":[],"categories_nodes":[],"categories_segments":[],"categories_sizes":[],"default_left":[0,0,0,0,0,0,0,0,0,0,0,0,0,0,0,0,0,0,0,0,0,0,0,0,0,0,0,0,0,0,0,0,0,0,0,0,0],"id":6,"left_children":[1,3,5,7,9,11,-1,-1,13,15,17,-1,-1,-1,19,21,23,25,-1,-1,27,-1,29,31,33,35,-1,-1,-1,-1,-1,-1,-1,-1,-1,-1,-1],"loss_changes":[1.3081296E2,3.325621E1,1.3035583E0,2.5450134E0,1.4345437E1,1.0593075E0,0E0,0E0,2.1418624E0,6.503472E0,1.7334843E-1,0E0,0E0,0E0,3.1644156E0,2.1112127E0,3.4943392E0,1.8544974E0,0E0,0E0,1.3229173E0,0E0,1.0110059E0,2.6084342E0,1.724915E0,2.340827E-1,0E0,0E0,0E0,0E0,0E0,0E0,0E0,0E0,0E0,0E0,0E0],"parents":[2147483647,0,0,1,1,2,2,3,3,4,4,5,5,8,8,9,9,10,10,14,14,15,15,16,16,17,17,20,20,22,22,23,23,24,24,25,25],"right_children":[2,4,6,8,10,12,-1,-1,14,16,18,-1,-1,-1,20,22,24,26,-1,-1,28,-1,30,32,34,36,-1,-1,-1,-1,-1,-1,-1,-1,-1,-1,-1],"split_conditions":[8E0,6E0,1E1,2E0,2.4E1,3E0,-3.0680454E-1,3.0726796E-1,5E0,7E0,2.6E1,1.1446539E-1,-1.8524617E-1,2.4909051E-1,4E0,2E0,7E0,2.5E1,-2.793491E-1,-2.2903673E-1,3E0,3.0275056E-1,3E0,1.4E1,2E0,1.9E1,1.2568328E-1,-6.5068714E-2,2.0169382E-1,6.419212E-2,1.4820857E-1,4.805907E-2,-1.4003273E-2,7.5957894E-2,-2.2573902E-1,-2.6591006E-1,-1.3482547E-1],"split_indices":[1,0,0,3,0,3,0,0,2,2,2,0,0,0,0,2,3,2,0,0,3,0,1,0,1,2,0,0,0,0,0,0,0,0,0,0,0],"split_type":[0,0,0,0,0,0,0,0,0,0,0,0,0,0,0,0,0,0,0,0,0,0,0,0,0,0,0,0,0,0,0,0,0,0,0,0,0],"sum_hessian":[5.148023E2,3.911748E2,1.2362751E2,5.6353317E1,3.348215E2,2.3549821E0,1.2127252E2,3.795066E1,1.8402657E1,3.1398602E2,2.083549E1,1.0831096E0,1.2718726E0,9.418061E0,8.984595E0,6.2705185E1,2.5128082E2,1.3359298E1,7.476191E0,1.9200039E0,7.064592E0,4.2564645E0,5.8448723E1,2.4253734E2,8.743488E0,1.2298876E1,1.0604223E0,1.7259207E0,5.338671E0,3.657877E1,2.1869953E1,1.1581582E2,1.2672152E2,1.6281161E0,7.1153727E0,5.0243125E0,7.2745633E0],"tree_param":{"num_deleted":"0","num_feature":"4","num_nodes":"37","size_leaf_vector":"1"}},{"base_weights":[-9.7635284E-2,1.2658286E-1,-9.890234E-1,7.709482E-1,3.2173246E-2,-1.6145635E-1,-3.020766E-1,9.375947E-1,3.7324625E-1,7.345365E-2,-6.6707605E-1,9.5914155E-2,-1.700139E-1,2.9181957E-1,2.6591337E-1,5.1601595E-1,-2.110475E-1,1.3224505E-1,-1.308048E-1,-4.9419898E-1,-2.6670292E-1,1.9926442E-2,9.9960625E-2,-6.622731E-2,6.681322E-1,2.4270359E-1,-8.240576E-3,-1.8901298E-2,-4.48351E-1,-6.086873E-1,9.9359006E-2,6.931562E-2,-8.614024E-2,4.2563334E-2,2.5588298E-1,6.295592E-2,3.5113278E-1,2.7959855E-2,-5.1369652E-2,-1.9242823E-2,1.9870469E-1,1.1335058E-2,-2.1561031E-1,-2.2981814E-1,-7.889578E-2],"categories":[],"categories_nodes":[],"categories_segments":[],"categories_sizes":[],"default_left":[0,0,0,0,0,0,0,0,0,0,0,0,0,0,0,0,0,0,0,0,0,0,0,0,0,0,0,0,0,0,0,0,0,0,0,0,0,0,0,0,0,0,0,0,0],"id":7,"left_children":[1,3,5,7,9,11,-1,13,15,17,19,-1,-1,-1,21,23,-1,25,27,29,-1,-1,-1,31,33,35,37,39,41,43,-1,-1,-1,-1,-1,-1,-1,-1,-1,-1,-1,-1,-1,-1,-1],"loss_changes":[9.3718185E1,2.2791105E1,1.2331848E0,2.8236523E0,9.521588E0,8.024138E-1,0E0,5.221424E-1,2.7920792E0,3.7492561E0,2.6632404E-1,0E0,0E0,0E0,1.8418834E-2,1.3310003E0,0E0,3.7544084E0,2.477527E0,1.3913927E0,0E0,0E0,0E0,3.2372263E-1,1.0080571E0,3.8811178E0,1.7918007E0,1.6690296E0,2.4172504E0,4.192543E-1,0E0,0E0,0E0,0E0,0E0,0E0,0E0,0E0,0E0,0E0,0E0,0E0,0E0,0E0,0E0],"parents":[2147483647,0,0,1,1,2,2,3,3,4,4,5,5,7,7,8,8,9,9,10,10,14,14,15,15,17,17,18,18,19,19,23,23,24,24,25,25,26,26,27,27,28,28,29,29],"right_children":[2,4,6,8,10,12,-1,14,16,18,20,-1,-1,-1,22,24,-1,26,28,30,-1,-1,-1,32,34,36,38,40,42,44,-1,-1,-1,-1,-1,-1,-1,-1,-1,-1,-1,-1,-1,-1,-1],"split_conditions":[8E0,6E0,1E1,5E0,2.4E1,3E0,-3.020766E-1,4E0,5E0,4E0,2.6E1,9.5914155E-2,-1.700139E-1,2.9181957E-1,4E0,1E0,-2.110475E-1,1.4E1,5E0,2.5E1,-2.6670292E-1,1.9926442E-2,9.9960625E-2,2E0,4E0,1.7E1,1.5E1,2.3E1,5E0,5E0,9.9359006E-2,6.931562E-2,-8.614024E-2,4.2563334E-2,2.5588298E-1,6.295592E-2,3.5113278E-1,2.7959855E-2,-5.1369652E-2,-1.9242823E-2,1.9870469E-1,1.1335058E-2,-2.1561031E-1,-2.2981814E-1,-7.889578E-2],"split_indices":[1,0,0,2,0,3,0,1,3,3,2,0,0,0,2,1,0,0,1,2,0,0,0,3,0,2,2,2,3,1,0,0,0,0,0,0,0,0,0,0,0,0,0,0,0],"split_type":[0,0,0,0,0,0,0,0,0,0,0,0,0,0,0,0,0,0,0,0,0,0,0,0,0,0,0,0,0,0,0,0,0,0,0,0,0,0,0,0,0,0,0,0,0],"sum_hessian":[4.6728015E2,3.7405023E2,9.322992E1,4.6884914E1,3.271653E2,2.1858263E0,9.104409E1,3.2083595E1,1.4801316E1,3.0977274E2,1.7392578E1,1.0958191E0,1.0900073E0,3.006274E1,2.0208554E0,1.3528296E1,1.2730204E0,2.4081258E2,6.896015E1,1.1590696E1,5.8018827E0,1.0109087E0,1.0099467E0,2.9192271E0,1.0609069E1,1.3440634E2,1.0640623E2,5.1774357E1,1.7185797E1,1.040939E1,1.1813061E0,1.2249109E0,1.6943161E0,3.2168097E0,7.3922596E0,1.3099414E2,3.4122024E0,6.585108E1,4.0555145E1,4.93996E1,2.374754E0,6.449236E0,1.0736561E1,6.3175163E0,4.091874E0],"tree_param":{"num_deleted":"0","num_feature":"4","num_nodes":"45","size_leaf_vector":"1"}},{"base_weights":[-8.13501E-2,9.4768375E-2,-9.7007823E-1,7.0144796E-1,2.3107033E-2,-4.4069737E-2,-2.9767483E-1,3.0839035E-1,4.4954503E-1,4.6699703E-2,-2.8305227E-1,5.229914E-1,-1.6337581E-1,1.01227045E-1,-1.4859222E-1,6.745116E-1,3.482613E-1,1.893064E-2,-9.7515225E-2,3.1948578E-1,3.1938545E-2,-6.137339E-2,-5.4997873E-1,2.4394624E-1,3.8580414E-2,3.4514554E-2,1.8493067E-1,4.5563925E-2,2.7680847E-1,1.34609165E-2,-1.11495644E-1,-4.1571755E-2,1.7948228E-1,-2.7027005E-1,1.4914937E-1],"categories":[],"categories_nodes":[],"categories_segments":[],"categories_sizes":[],"default_left":[0,0,0,0,0,0,0,0,0,0,0,0,0,0,0,0,0,0,0,0,0,0,0,0,0,0,0,0,0,0,0,0,0,0,0],"id":8,"left_children":[1,3,5,7,9,-1,-1,-1,11,13,-1,15,17,19,21,23,25,-1,-1,27,29,31,33,-1,-1,-1,-1,-1,-1,-1,-1,-1,-1,-1,-1],"loss_changes":[6.7531525E1,1.5657295E1,1.156456E0,2.6676579E0,7.420625E0,0E0,0E0,0E0,1.1324091E0,3.3875895E0,0E0,3.2124424E-1,1.3953704E-1,3.7429194E0,2.4004626E0,6.6614246E-1,6.68542E-1,0E0,0E0,5.89465E0,1.0055833E0,3.0490332E0,4.962677E0,0E0,0E0,0E0,0E0,0E0,0E0,0E0,0E0,0E0,0E0,0E0,0E0],"parents":[2147483647,0,0,1,1,2,2,3,3,4,4,8,8,9,9,11,11,12,12,13,13,14,14,15,15,16,16,19,19,20,20,21,21,22,22],"right_children":[2,4,6,8,10,-1,-1,-1,12,14,-1,16,18,20,22,24,26,-1,-1,28,30,32,34,-1,-1,-1,-1,-1,-1,-1,-1,-1,-1,-1,-1],"split_conditions":[8E0,4E0,1E1,2E0,2.6E1,-4.4069737E-2,-2.9767483E-1,3.0839035E-1,5E0,4E0,-2.8305227E-1,6E0,3E0,1E1,1.8E1,2E0,2E0,1.893064E-2,-9.7515225E-2,3E0,2.6E1,1.6E1,2.3E1,2.4394624E-1,3.8580414E-2,3.4514554E-2,1.8493067E-1,4.5563925E-2,2.7680847E-1,1.34609165E-2,-1.11495644E-1,-4.1571755E-2,1.7948228E-1,-2.7027005E-1,1.4914937E-1],"split_indices":[1,2,0,2,2,0,0,0,3,3,0,0,1,0,2,3,3,0,0,1,0,2,2,0,0,0,0,0,0,0,0,0,0,0,0],"split_type":[0,0,0,0,0,0,0,0,0,0,0,0,0,0,0,0,0,0,0,0,0,0,0,0,0,0,0,0,0,0,0,0,0,0,0],"sum_hessian":[4.298648E2,3.5951367E2,7.035114E1,3.7051346E1,3.224623E2,2.045119E0,6.830602E1,1.4794161E1,2.2257185E1,3.1570834E2,6.7539725E0,2.0006523E1,2.2506626E0,2.4717612E2,6.8532234E1,9.183014E0,1.0823509E1,1.1914082E0,1.0592544E0,5.8690403E1,1.8848572E2,5.724594E1,1.1286289E1,6.932785E0,2.2502284E0,6.5534387E0,4.27007E0,4.690836E1,1.1782044E1,1.8349529E2,4.990425E0,5.195548E1,5.290465E0,8.557977E0,2.7283123E0],"tree_param":{"num_deleted":"0","num_feature":"4","num_nodes":"35","size_leaf_vector":"1"}},{"base_weights":[-6.5584764E-2,6.7252114E-2,-2.9362252E-1,6.162899E-1,5.951149E-3,8.4791565E-1,2.4293065E-1,2.4659574E-2,-2.6977578E-1,2.6337862E-1,7.832928E-2,5.6800896E-1,-2.1544695E-2,2.2586279E-1,-2.0365441E-2,1.7895927E-1,2.2475965E-1,-1.9870819E-1,2.261735E-1,2.4845715E-1,1.8131845E-1,-2.5749274E-3,-4.1939756E-1,1.885108E-1,-1.3764808E-1,-9.098931E-2,1.2767538E-1,2.3392297E-2,1.0296506E-1,3.1654981E-3,-1.2050604E-1,-2.3708934E-2,-2.1310626E-1],"categories":[],"categories_nodes":[],"categories_segments":[],"categories_sizes":[],"default_left":[0,0,0,0,0,0,0,0,0,0,0,0,0,0,0,0,0,0,0,0,0,0,0,0,0,0,0,0,0,0,0,0,0],"id":9,"left_children":[1,3,-1,5,7,9,11,13,-1,-1,-1,15,17,19,21,23,-1,-1,25,-1,27,29,31,-1,-1,-1,-1,-1,-1,-1,-1,-1,-1],"loss_changes":[4.8886395E1,1.1853465E1,0E0,2.8531628E0,5.406193E0,1.4819145E-1,1.297136E0,2.8352246E0,0E0,0E0,0E0,3.4110308E-1,1.6108806E0,1.3850269E0,1.8179692E0,1.2788144E0,0E0,0E0,9.0864563E-1,0E0,8.8607514E-1,1.294652E0,1.0263327E0,0E0,0E0,0E0,0E0,0E0,0E0,0E0,0E0,0E0,0E0],"parents":[2147483647,0,0,1,1,3,3,4,4,5,5,6,6,7,7,11,11,12,12,13,13,14,14,15,15,18,18,20,20,21,21,22,22],"right_children":[2,4,-1,6,8,10,12,14,-1,-1,-1,16,18,20,22,24,-1,-1,26,-1,28,30,32,-1,-1,-1,-1,-1,-1,-1,-1,-1,-1],"split_conditions":[9E0,6E0,-2.9362252E-1,2E0,2.6E1,4E0,5E0,7E0,-2.6977578E-1,2.6337862E-1,7.832928E-2,3E0,4E0,2E0,7E0,3E0,2.2475965E-1,-1.9870819E-1,3E0,2.4845715E-1,3E0,7E0,4E0,1.885108E-1,-1.3764808E-1,-9.098931E-2,1.2767538E-1,2.3392297E-2,1.0296506E-1,3.1654981E-3,-1.2050604E-1,-2.3708934E-2,-2.1310626E-1],"split_indices":[1,0,0,3,2,1,2,2,0,0,0,3,0,2,1,2,0,0,3,0,1,3,3,0,0,0,0,0,0,0,0,0,0],"split_type":[0,0,0,0,0,0,0,0,0,0,0,0,0,0,0,0,0,0,0,0,0,0,0,0,0,0,0,0,0,0,0,0,0],"sum_hessian":[4.0147488E2,3.5129794E2,5.0176937E1,3.437421E1,3.1692374E2,2.0429224E1,1.3944988E1,3.1145935E2,5.4643717E0,1.8963257E1,1.4659665E0,5.740906E0,8.2040825E0,5.6218674E1,2.5524069E2,2.45571E0,3.2851958E0,1.8205919E0,6.38349E0,2.6598425E0,5.355883E1,2.453102E2,9.930497E0,1.4492643E0,1.0064458E0,1.6038972E0,4.779593E0,3.3595524E1,1.9963306E1,2.3844153E2,6.8686595E0,5.1626873E0,4.7678103E0],"tree_param":{"num_deleted":"0","num_feature":"4","num_nodes":"33","size_leaf_vector":"1"}},{"base_weights":[-5.2526757E-2,5.0049003E-2,-2.8853476E-1,2.8630224E-1,2.2506546E-2,3.6423564E-2,-2.5553986E-1,3.803877E-1,9.575825E-3,6.558991E-1,9.884989E-2,3.4865458E-2,-2.5365582E-1,2.4276239E-1,8.85082E-2,6.2451653E-2,-1.0603931E-1,1.3735347E-2,-1.510801E-1,1.3015948E-2,-1.3371618E-1],"categories":[],"categories_nodes":[],"categories_segments":[],"categories_sizes":[],"default_left":[0,0,0,0,0,0,0,0,0,0,0,0,0,0,0,0,0,0,0,0,0],"id":10,"left_children":[1,3,-1,-1,5,7,-1,9,11,13,15,17,19,-1,-1,-1,-1,-1,-1,-1,-1],"loss_changes":[3.5649136E1,8.545395E0,0E0,0E0,4.1050262E0,3.048717E0,0E0,1.789448E0,2.0567288E0,4.1988516E-1,7.1645266E-1,1.6783915E0,1.5645838E0,0E0,0E0,0E0,0E0,0E0,0E0,0E0,0E0],"parents":[2147483647,0,0,1,1,4,4,5,5,7,7,8,8,9,9,10,10,11,11,12,12],"right_children":[2,4,-1,-1,6,8,-1,10,12,14,16,18,20,-1,-1,-1,-1,-1,-1,-1,-1],"split_conditions":[9E0,2E0,-2.8853476E-1,2.8630224E-1,2.6E1,6E0,-2.5553986E-1,2E0,6E0,2E0,5E0,2.6E1,1.4E1,2.4276239E-1,8.85082E-2,6.2451653E-2,-1.0603931E-1,1.3735347E-2,-1.510801E-1,1.3015948E-2,-1.3371618E-1],"split_indices":[1,2,0,0,2,0,0,3,1,1,3,0,0,0,0,0,0,0,0,0,0],"split_type":[0,0,0,0,0,0,0,0,0,0,0,0,0,0,0,0,0,0,0,0,0],"sum_hessian":[3.8070813E2,3.429625E2,3.7745632E1,9.142432E0,3.3382004E2,3.2953296E2,4.2870955E0,2.2905617E1,3.0662735E2,1.0904667E1,1.200095E1,2.8054218E2,2.6085167E1,6.7813725E0,4.1232944E0,1.00996685E1,1.9012816E0,2.758632E2,4.678994E0,1.0547219E1,1.5537949E1],"tree_param":{"num_deleted":"0","num_feature":"4","num_nodes":"21","size_leaf_vector":"1"}},{"base_weights":[-4.2201784E-2,3.657914E-2,-9.4223523E-1,2.7458525E-1,1.503527E-2,-4.2268646E-1,-2.91542E-1,2.5981875E-2,-2.4098505E-1,-1.7660566E-1,-7.6733953E-3,1.4998992E-1,-2.212358E-2,2.5677255E-1,1.9823289E-2,-1.4637493E-2,-2.0242293E-1,9.78406E-2,-7.242552E-2,4.543367E-2,-9.411171E-2,-1.1926112E-3,-1.1960921E-1],"categories":[],"categories_nodes":[],"categories_segments":[],"categories_sizes":[],"default_left":[0,0,0,0,0,0,0,0,0,0,0,0,0,0,0,0,0,0,0,0,0,0,0],"id":11,"left_children":[1,3,5,-1,7,9,-1,11,-1,-1,-1,13,15,17,19,21,-1,-1,-1,-1,-1,-1,-1],"loss_changes":[2.5968273E1,6.371122E0,4.208374E-2,0E0,2.9789364E0,2.0623916E-1,0E0,1.9530199E0,0E0,0E0,0E0,1.2664042E0,1.1448472E0,1.8123662E0,1.9048474E0,9.5946926E-1,0E0,0E0,0E0,0E0,0E0,0E0,0E0],"parents":[2147483647,0,0,1,1,2,2,4,4,5,5,7,7,11,11,12,12,13,13,14,14,15,15],"right_children":[2,4,6,-1,8,10,-1,12,-1,-1,-1,14,16,18,20,22,-1,-1,-1,-1,-1,-1,-1],"split_conditions":[9E0,2E0,1.1E1,2.7458525E-1,2.6E1,1E1,-2.91542E-1,8E0,-2.4098505E-1,-1.7660566E-1,-7.6733953E-3,1E1,8E0,5E0,4E0,2.6E1,-2.0242293E-1,9.78406E-2,-7.242552E-2,4.543367E-2,-9.411171E-2,-1.1926112E-3,-1.1960921E-1],"split_indices":[1,2,1,0,2,1,0,2,0,0,0,0,3,3,1,0,0,0,0,0,0,0,0],"split_type":[0,0,0,0,0,0,0,0,0,0,0,0,0,0,0,0,0,0,0,0,0,0,0],"sum_hessian":[3.6475186E2,3.3627655E2,2.8475302E1,7.05467E0,3.292219E2,2.3570662E0,2.6118235E1,3.258315E2,3.3903809E0,1.3220102E0,1.035056E0,9.047744E1,2.3535406E2,4.916891E1,4.1308533E1,2.3369582E2,1.6582565E0,4.3462955E1,5.705954E0,3.0011045E1,1.1297486E1,2.2836635E2,5.329468E0],"tree_param":{"num_deleted":"0","num_feature":"4","num_nodes":"23","size_leaf_vector":"1"}},{"base_weights":[-3.514027E-2,2.5833638E-2,-9.2007303E-1,2.6246542E-1,8.862681E-3,-1.09284036E-1,-2.873962E-1,1.7602112E-2,-2.2615786E-1,2.6457846E-1,5.546421E-4,5.427386E-1,2.2026017E-2,5.4112207E-3,-1.8523036E-1,7.2691426E-2,2.4944927E-1,-9.326906E-2,6.0788106E-2,1.2605512E-2,-2.041157E-2],"categories":[],"categories_nodes":[],"categories_segments":[],"categories_sizes":[],"default_left":[0,0,0,0,0,0,0,0,0,0,0,0,0,0,0,0,0,0,0,0,0],"id":12,"left_children":[1,3,5,-1,7,-1,-1,9,-1,11,13,15,17,19,-1,-1,-1,-1,-1,-1,-1],"loss_changes":[1.9042343E1,4.7577085E0,1.3037872E-1,0E0,2.181325E0,0E0,0E0,1.3578725E0,0E0,1.3930063E0,9.119022E-1,6.3635755E-1,7.945086E-1,8.1313056E-1,0E0,0E0,0E0,0E0,0E0,0E0,0E0],"parents":[2147483647,0,0,1,1,2,2,4,4,7,7,9,9,10,10,11,11,12,12,13,13],"right_children":[2,4,6,-1,8,-1,-1,10,-1,12,14,16,18,20,-1,-1,-1,-1,-1,-1,-1],"split_conditions":[9E0,2E0,1.6E1,2.6246542E-1,2.6E1,-1.09284036E-1,-2.873962E-1,6E0,-2.2615786E-1,2E0,8E0,1E0,3E0,1.6E1,-1.8523036E-1,7.2691426E-2,2.4944927E-1,-9.326906E-2,6.0788106E-2,1.2605512E-2,-2.041157E-2],"split_indices":[1,2,2,0,2,0,0,0,0,3,3,3,3,0,0,0,0,0,0,0,0],"split_type":[0,0,0,0,0,0,0,0,0,0,0,0,0,0,0,0,0,0,0,0,0],"sum_hessian":[3.5147128E2,3.297234E2,2.1747894E1,5.470771E0,3.2425262E2,2.066253E0,1.968164E1,3.215452E2,2.7074108E0,1.9823973E1,3.0172122E2,8.657688E0,1.1166285E1,3.003521E2,1.3691269E0,5.1444087E0,3.5132794E0,3.6733375E0,7.4929476E0,2.0073454E2,9.961755E1],"tree_param":{"num_deleted":"0","num_feature":"4","num_nodes":"21","size_leaf_vector":"1"}},{"base_weights":[-2.761891E-2,1.9283779E-2,-8.933894E-1,2.4970104E-1,5.9346478E-3,-8.8398986E-2,-2.8254372E-1,1.2977356E-2,-2.1123864E-1,4.5908384E-2,-1.03968024E-1,4.8465696E-1,3.3918705E-2,-1.0012051E-2,-3.766946E-1,1.9101086E-1,3.222571E-2,-3.2908E-3,5.4234184E-2,-1.5442119E-2,1.8322733E-1,2.145505E-2,-1.9902487E-1],"categories":[],"categories_nodes":[],"categories_segments":[],"categories_sizes":[],"default_left":[0,0,0,0,0,0,0,0,0,0,0,0,0,0,0,0,0,0,0,0,0,0,0],"id":13,"left_children":[1,3,5,-1,7,-1,-1,9,-1,11,13,15,17,19,21,-1,-1,-1,-1,-1,-1,-1,-1],"loss_changes":[1.3967006E1,3.5426118E0,2.3492718E-1,0E0,1.6223042E0,0E0,0E0,1.2386658E0,0E0,1.3023205E0,1.8079796E0,3.0977547E-1,1.6177651E0,1.4113884E0,2.372158E0,0E0,0E0,0E0,0E0,0E0,0E0,0E0,0E0],"parents":[2147483647,0,0,1,1,2,2,4,4,7,7,9,9,10,10,11,11,12,12,13,13,14,14],"right_children":[2,4,6,-1,8,-1,-1,10,-1,12,14,16,18,20,22,-1,-1,-1,-1,-1,-1,-1,-1],"split_conditions":[9E0,2E0,2E1,2.4970104E-1,2.6E1,-8.8398986E-2,-2.8254372E-1,4E0,-2.1123864E-1,4E0,5E0,2E0,4E0,2.3E1,5E0,1.9101086E-1,3.222571E-2,-3.2908E-3,5.4234184E-2,-1.5442119E-2,1.8322733E-1,2.145505E-2,-1.9902487E-1],"split_indices":[1,2,0,0,2,0,0,3,0,0,1,1,1,2,3,0,0,0,0,0,0,0,0],"split_type":[0,0,0,0,0,0,0,0,0,0,0,0,0,0,0,0,0,0,0,0,0,0,0],"sum_hessian":[3.4253168E2,3.258563E2,1.6675377E1,4.27263E0,3.2158368E2,1.7778852E0,1.4897492E1,3.1939746E2,2.1861951E0,2.4969304E2,6.970444E1,5.5932064E0,2.4409984E2,5.2614967E1,1.7089468E1,3.4962432E0,2.0969634E0,1.8766554E2,5.643428E1,5.0180458E1,2.4345093E0,6.959988E0,1.0129479E1],"tree_param":{"num_deleted":"0","num_feature":"4","num_nodes":"23","size_leaf_vector":"1"}},{"base_weights":[-2.1742204E-2,1.2464418E-2,-2.7680394E-1,2.3624949E-1,1.9295511E-3,1.4495542E-2,-3.7121713E-1,3.0883841E-2,-2.3287715E-1,-1.2584804E-1,-2.3064144E-1,4.6684094E-2,-1.5014881E-1,-2.883453E-2,-4.2730245E-1,-2.114407E-1,2.197372E-1,9.6104415E-3,6.459448E-2,-6.3594386E-2,1.4731424E-1,-9.2387006E-2,9.837858E-2,-2.7551708E-1,5.4200713E-2,-9.16039E-2,1.6473338E-1],"categories":[],"categories_nodes":[],"categories_segments":[],"categories_sizes":[],"default_left":[0,0,0,0,0,0,0,0,0,0,0,0,0,0,0,0,0,0,0,0,0,0,0,0,0,0,0],"id":14,"left_children":[1,3,-1,-1,5,7,9,11,13,15,-1,17,19,21,23,-1,25,-1,-1,-1,-1,-1,-1,-1,-1,-1,-1],"loss_changes":[1.0402595E1,2.6588345E0,0E0,0E0,1.5173911E0,1.2757708E0,9.317721E-1,8.489832E-1,7.6363385E-1,1.6985166E0,0E0,6.637777E-1,1.0503056E0,1.1581523E0,3.1347423E0,0E0,1.1350864E0,0E0,0E0,0E0,0E0,0E0,0E0,0E0,0E0,0E0,0E0],"parents":[2147483647,0,0,1,1,4,4,5,5,6,6,7,7,8,8,9,9,11,11,12,12,13,13,14,14,16,16],"right_children":[2,4,-1,-1,6,8,10,12,14,16,-1,18,20,22,24,-1,26,-1,-1,-1,-1,-1,-1,-1,-1,-1,-1],"split_conditions":[1.1E1,2E0,-2.7680394E-1,2.3624949E-1,2.4E1,1.9E1,4E0,6E0,3E0,1.9E1,-2.3064144E-1,5E0,2.2E1,2E0,2.2E1,-2.114407E-1,2E0,9.6104415E-3,6.459448E-2,-6.3594386E-2,1.4731424E-1,-9.2387006E-2,9.837858E-2,-2.7551708E-1,5.4200713E-2,-9.16039E-2,1.6473338E-1],"split_indices":[1,2,0,0,0,2,3,1,3,2,0,1,0,3,2,0,3,0,0,0,0,0,0,0,0,0,0],"split_type":[0,0,0,0,0,0,0,0,0,0,0,0,0,0,0,0,0,0,0,0,0,0,0,0,0,0,0],"sum_hessian":[3.361758E2,3.2482892E2,1.1346877E1,3.3670716E0,3.2146185E2,3.119189E2,9.542947E0,2.933592E2,1.8559725E1,6.715216E0,2.8277307E0,2.7049307E2,2.2866098E1,9.616182E0,8.9435425E0,2.1215563E0,4.59366E0,2.4996786E2,2.0525227E1,2.1465511E1,1.4005858E0,5.4719076E0,4.1442747E0,4.664899E0,4.278644E0,1.7988726E0,2.7947874E0],"tree_param":{"num_deleted":"0","num_feature":"4","num_nodes":"27","size_leaf_vector":"1"}},{"base_weights":[-1.8858628E-2,7.3767174E-3,-2.696292E-1,2.2223978E-1,-1.0670522E-3,5.0135446E-3,-2.0085211E-1,9.618756E-3,-1.8342017E-1,1.07481845E-1,-1.4681604E-2,3.6123428E-3,8.36427E-2,-2.455907E-3,-9.1623515E-2],"categories":[],"categories_nodes":[],"categories_segments":[],"categories_sizes":[],"default_left":[0,0,0,0,0,0,0,0,0,0,0,0,0,0,0],"id":15,"left_children":[1,3,-1,-1,5,7,-1,9,-1,11,13,-1,-1,-1,-1],"loss_changes":[7.6701818E0,2.0032904E0,0E0,0E0,1.3067442E0,9.107977E-1,0E0,7.563831E-1,0E0,1.0309758E0,4.7929978E-1,0E0,0E0,0E0,0E0],"parents":[2147483647,0,0,1,1,4,4,5,5,7,7,9,9,10,10],"right_children":[2,4,-1,-1,6,8,-1,10,-1,12,14,-1,-1,-1,-1],"split_conditions":[1.1E1,2E0,-2.696292E-1,2.2223978E-1,2.6E1,8E0,-2.0085211E-1,7E0,-1.8342017E-1,3E0,2.6E1,3.6123428E-3,8.36427E-2,-2.455907E-3,-9.1623515E-2],"split_indices":[1,2,0,0,2,3,0,2,0,1,0,0,0,0,0],"split_type":[0,0,0,0,0,0,0,0,0,0,0,0,0,0,0],"sum_hessian":[3.3097653E2,3.2235672E2,8.619804E0,2.681818E0,3.196749E2,3.177767E2,1.898219E0,3.1639728E2,1.3793993E0,6.225583E1,2.5414146E2,4.0670124E1,2.1585703E1,2.4959341E2,4.5480485E0],"tree_param":{"num_deleted":"0","num_feature":"4","num_nodes":"15","size_leaf_vector":"1"}},{"base_weights":[-1.5552083E-2,4.6976823E-3,-2.6108816E-1,2.07928E-1,-2.1383504E-3,2.8704053E-3,-1.8639894E-1,6.7429515E-3,-1.6907454E-1,1.8164952E-1,-4.351979E-3,1.2943697E-1,-1.461259E-3,2.7619272E-2,-7.528568E-3],"categories":[],"categories_nodes":[],"categories_segments":[],"categories_sizes":[],"default_left":[0,0,0,0,0,0,0,0,0,0,0,0,0,0,0],"id":16,"left_children":[1,3,-1,-1,5,7,-1,9,-1,11,13,-1,-1,-1,-1],"loss_changes":[5.6780906E0,1.513144E0,0E0,0E0,9.91327E-1,7.0027375E-1,0E0,6.1465913E-1,0E0,8.8238394E-1,5.991872E-1,0E0,0E0,0E0,0E0],"parents":[2147483647,0,0,1,1,4,4,5,5,7,7,9,9,10,10],"right_children":[2,4,-1,-1,6,8,-1,10,-1,12,14,-1,-1,-1,-1],"split_conditions":[1.1E1,2E0,-2.6108816E-1,2.07928E-1,2.6E1,8E0,-1.8639894E-1,6E0,-1.6907454E-1,2E0,1E0,1.2943697E-1,-1.461259E-3,2.7619272E-2,-7.528568E-3],"split_indices":[1,2,0,0,2,3,0,0,0,3,3,0,0,0,0],"split_type":[0,0,0,0,0,0,0,0,0,0,0,0,0,0,0],"sum_hessian":[3.2681934E2,3.202273E2,6.5920305E0,2.1616206E0,3.1806567E2,3.1650082E2,1.5648704E0,3.1533313E2,1.1676764E0,1.7892569E1,2.9744058E2,7.0873213E0,1.0805247E1,5.2053516E1,2.4538705E2],"tree_param":{"num_deleted":"0","num_feature":"4","num_nodes":"15","size_leaf_vector":"1"}},{"base_weights":[-1.2271895E-2,3.4867595E-3,-2.5112683E-1,1.9363488E-1,-2.1162392E-3,2.0724353E-3,-1.7255402E-1,1.32689895E-2,-1.209674E-1,2.4238046E-2,-1.8313722E-1,-3.5215832E-2,-5.5864704E-1,1.0881911E-2,-7.5444944E-2,-2.2310746E-1,2.0999879E-2,6.990576E-2,-7.758976E-2,-2.1657392E-1,-3.7862645E-3],"categories":[],"categories_nodes":[],"categories_segments":[],"categories_sizes":[],"default_left":[0,0,0,0,0,0,0,0,0,0,0,0,0,0,0,0,0,0,0,0,0],"id":17,"left_children":[1,3,-1,-1,5,7,-1,9,11,13,15,17,19,-1,-1,-1,-1,-1,-1,-1,-1],"loss_changes":[4.2172832E0,1.1493176E0,0E0,0E0,7.6303387E-1,4.3704054E-1,0E0,6.3053685E-1,9.735148E-1,9.2539155E-1,2.2498817E0,1.4502791E0,3.7136912E-1,0E0,0E0,0E0,0E0,0E0,0E0,0E0,0E0],"parents":[2147483647,0,0,1,1,4,4,5,5,7,7,8,8,9,9,10,10,11,11,12,12],"right_children":[2,4,-1,-1,6,8,-1,10,12,14,16,18,20,-1,-1,-1,-1,-1,-1,-1,-1],"split_conditions":[1.1E1,2E0,-2.5112683E-1,1.9363488E-1,2.6E1,6E0,-1.7255402E-1,2E1,6E0,2.2E1,2E1,1.4E1,1.6E1,1.0881911E-2,-7.5444944E-2,-2.2310746E-1,2.0999879E-2,6.990576E-2,-7.758976E-2,-2.1657392E-1,-3.7862645E-3],"split_indices":[1,2,0,0,2,1,0,2,3,0,0,0,2,0,0,0,0,0,0,0,0],"split_type":[0,0,0,0,0,0,0,0,0,0,0,0,0,0,0,0,0,0,0,0,0],"sum_hessian":[3.2323148E2,3.181488E2,5.0826597E0,1.7646712E0,3.1638412E2,3.150775E2,1.3066012E0,2.896149E2,2.5462633E1,2.7512604E2,1.4488873E1,2.2194649E1,3.2679849E0,2.644514E2,1.067463E1,3.904568E0,1.0584305E1,1.0066175E1,1.2128473E1,2.2677796E0,1.0002053E0],"tree_param":{"num_deleted":"0","num_feature":"4","num_nodes":"21","size_leaf_vector":"1"}},{"base_weights":[-1.1863572E-2,4.976788E-4,-2.3981269E-1,1.7968391E-1,-4.1723587E-3,-6.251468E-4,-1.59518E-1,-4.555E-3,1.0900004E-1,1.2371835E-3,-2.0546062E-1,-7.674554E-4,1.044664E-1],"categories":[],"categories_nodes":[],"categories_segments":[],"categories_sizes":[],"default_left":[0,0,0,0,0,0,0,0,0,0,0,0,0],"id":18,"left_children":[1,3,-1,-1,5,7,-1,9,-1,11,-1,-1,-1],"loss_changes":[3.1225002E0,8.8778424E-1,0E0,0E0,5.8971155E-1,4.51056E-1,0E0,1.2296177E0,0E0,4.0939885E-1,0E0,0E0,0E0],"parents":[2147483647,0,0,1,1,4,4,5,5,7,7,9,9],"right_children":[2,4,-1,-1,6,8,-1,10,-1,12,-1,-1,-1],"split_conditions":[1.1E1,2E0,-2.3981269E-1,1.7968391E-1,2.6E1,2.5E1,-1.59518E-1,2.4E1,1.0900004E-1,2.3E1,-2.0546062E-1,-7.674554E-4,1.044664E-1],"split_indices":[1,2,0,0,2,2,0,2,0,2,0,0,0],"split_type":[0,0,0,0,0,0,0,0,0,0,0,0,0],"sum_hessian":[3.1972113E2,3.1576407E2,3.9570503E0,1.4596692E0,3.143044E2,3.1319968E2,1.1047323E0,3.1083096E2,2.368721E0,3.0919666E2,1.6343155E0,3.0683307E2,2.3635619E0],"tree_param":{"num_deleted":"0","num_feature":"4","num_nodes":"13","size_leaf_vector":"1"}},{"base_weights":[-9.444922E-3,3.1658326E-4,-2.2734682E-1,2.0195942E-1,-1.1374435E-2,3.2217607E-1,2.8281743E-2,-7.911625E-3,-1.5670297E-1,5.92966E-1,8.817817E-2,-1.6599593E-1,1.7079729E-1,-2.3471597E-3,-3.0155504E-1,2.1130776E-1,5.2592404E-2,-1.9335802E-1,2.1127774E-1,-1.8355854E-1,9.021954E-2,4.6428606E-1,-5.998701E-2,-6.825378E-3,1.2037759E-1,6.536017E-2,-2.0037794E-1,6.3518755E-2,-1.7719963E-1,1.9572224E-2,1.8864085E-1,-4.8820468E-4,-1.3317916E-1,-1.5328363E-1,1.415414E-1],"categories":[],"categories_nodes":[],"categories_segments":[],"categories_sizes":[],"default_left":[0,0,0,0,0,0,0,0,0,0,0,0,0,0,0,0,0,0,0,0,0,0,0,0,0,0,0,0,0,0,0,0,0,0,0],"id":19,"left_children":[1,3,-1,5,7,9,11,13,-1,15,17,19,21,23,25,-1,-1,27,-1,-1,-1,29,-1,31,-1,33,-1,-1,-1,-1,-1,-1,-1,-1,-1],"loss_changes":[2.3348343E0,7.4832445E-1,0E0,3.5409516E-1,5.2679837E-1,5.930079E-1,2.5572073E-1,4.8794734E-1,0E0,8.802545E-2,1.2874875E0,1.012663E0,6.6191345E-1,5.3503984E-1,7.9024786E-1,0E0,0E0,9.8457104E-1,0E0,0E0,0E0,1.7037815E-1,0E0,6.6331226E-1,0E0,1.1044015E0,0E0,0E0,0E0,0E0,0E0,0E0,0E0,0E0,0E0],"parents":[2147483647,0,0,1,1,3,3,4,4,5,5,6,6,7,7,9,9,10,10,11,11,12,12,13,13,14,14,17,17,21,21,23,23,25,25],"right_children":[2,4,-1,6,8,10,12,14,-1,16,18,20,22,24,26,-1,-1,28,-1,-1,-1,30,-1,32,-1,34,-1,-1,-1,-1,-1,-1,-1,-1,-1],"split_conditions":[1.1E1,4E0,-2.2734682E-1,2E0,8E0,6E0,2E0,2.6E1,-1.5670297E-1,2E0,1.2E1,3E0,5E0,2.5E1,2.3E1,2.1130776E-1,5.2592404E-2,3E0,2.1127774E-1,-1.8355854E-1,9.021954E-2,3E0,-5.998701E-2,2.4E1,1.2037759E-1,4E0,-2.0037794E-1,6.3518755E-2,-1.7719963E-1,1.9572224E-2,1.8864085E-1,-4.8820468E-4,-1.3317916E-1,-1.5328363E-1,1.415414E-1],"split_indices":[1,2,0,1,3,0,3,0,0,3,0,2,3,2,2,0,0,2,0,0,0,3,0,0,0,1,0,0,0,0,0,0,0,0,0],"split_type":[0,0,0,0,0,0,0,0,0,0,0,0,0,0,0,0,0,0,0,0,0,0,0,0,0,0,0,0,0,0,0,0,0,0,0],"sum_hessian":[3.185757E2,3.1546057E2,3.1151497E0,1.6395838E1,2.9906473E2,9.1838875E0,7.2119493E0,2.9806027E2,1.0044562E0,3.5461278E0,5.6377597E0,2.9820511E0,4.2298985E0,2.9350638E2,4.5538754E0,2.2575653E0,1.2885627E0,4.340424E0,1.2973355E0,1.3660758E0,1.6159754E0,2.2201517E0,2.0097468E0,2.912578E2,2.2485695E0,2.685745E0,1.8681306E0,2.3804507E0,1.9599733E0,1.0558013E0,1.1643503E0,2.8882684E2,2.4309893E0,1.0044318E0,1.681313E0],"tree_param":{"num_deleted":"0","num_feature":"4","num_nodes":"35","size_leaf_vector":"1"}},{"base_weights":[-7.402174E-3,4.4314621E-4,-2.1493228E-1,1.6072305E-1,-3.1945063E-3,4.943954E-3,-2.0451452E-1,1.942979E-2,-5.010737E-2,-2.2652902E-2,-2.1044503E-1,-1.170702E-2,1.3421246E-1,-2.0384198E-1,3.772206E-2,1.4154543E-1,-1.7990339E-1,1.036033E-2,-7.174577E-2,-2.2576151E-2,1.2485382E-1,-8.182244E-2,1.4710818E-1,8.6234026E-2,-5.831102E-2,-8.143997E-2,1.2739472E-1],"categories":[],"categories_nodes":[],"categories_segments":[],"categories_sizes":[],"default_left":[0,0,0,0,0,0,0,0,0,0,0,0,0,0,0,0,0,0,0,0,0,0,0,0,0,0,0],"id":20,"left_children":[1,3,-1,-1,5,7,9,11,13,15,-1,17,19,21,23,25,-1,-1,-1,-1,-1,-1,-1,-1,-1,-1,-1],"loss_changes":[1.7686589E0,6.159024E-1,0E0,0E0,5.159414E-1,2.426427E-1,1.0898991E0,8.616011E-1,8.6387146E-1,1.0314494E0,0E0,2.0087664E0,3.068805E0,1.2439287E0,2.4437006E0,1.1192478E0,0E0,0E0,0E0,0E0,0E0,0E0,0E0,0E0,0E0,0E0,0E0],"parents":[2147483647,0,0,1,1,4,4,5,5,6,6,7,7,8,8,9,9,11,11,12,12,13,13,14,14,15,15],"right_children":[2,4,-1,-1,6,8,10,12,14,16,-1,18,20,22,24,26,-1,-1,-1,-1,-1,-1,-1,-1,-1,-1,-1],"split_conditions":[2.6E1,2E0,-2.1493228E-1,1.6072305E-1,7E0,4E0,2E1,4E0,9E0,6E0,-2.1044503E-1,1.5E1,1.4E1,7E0,1.3E1,1.2E1,-1.7990339E-1,1.036033E-2,-7.174577E-2,-2.2576151E-2,1.2485382E-1,-8.182244E-2,1.4710818E-1,8.6234026E-2,-5.831102E-2,-8.143997E-2,1.2739472E-1],"split_indices":[2,2,0,0,1,3,0,1,2,3,0,2,2,3,2,0,0,0,0,0,0,0,0,0,0,0,0],"split_type":[0,0,0,0,0,0,0,0,0,0,0,0,0,0,0,0,0,0,0,0,0,0,0,0,0,0,0],"sum_hessian":[3.1689627E2,3.1441672E2,2.4795601E0,1.1348855E0,3.1328183E2,3.0204688E2,1.1234951E1,2.3963736E2,6.240951E1,8.990526E0,2.2444253E0,1.8920909E2,5.0428272E1,2.2211E1,4.0198513E1,7.5864286E0,1.4040973E0,1.5794566E2,3.1263424E1,2.9354584E1,2.1073689E1,2.0757898E1,1.4531028E0,1.9248817E1,2.0949694E1,3.1020455E0,4.4843826E0],"tree_param":{"num_deleted":"0","num_feature":"4","num_nodes":"27","size_leaf_vector":"1"}},{"base_weights":[-6.9987103E-3,2.8370665E-3,-4.446202E-1,1.8269485E-1,-7.317587E-3,-3.29465E-2,-2.2627105E-1,8.460575E-2,3.492063E-1,3.6174052E-3,-1.2909006E-1,-1.5555838E-1,9.195765E-2,1.1511087E-1,-2.1377226E-2,1.7479971E-1,-1.2221667E-2,-3.5796722E-3,3.2662076E-1,3.836046E-2,-2.70056E-1,-1.9422518E-1,1.2924881E-1,9.761513E-3,-4.1825846E-1,-9.777674E-2,2.1880169E-1,2.1841231E-1,-2.1933801E-1,-2.7033466E-1,8.121785E-2,-3.5392384E-3,-1.7399332E-1,-3.0457375E-3,4.5593478E-2,-2.7966377E-1,1.13248825E-1,1.0968618E-1,-1.873166E-1,1.1511514E-1,-1.0849699E-1,-2.2131431E-1,9.073043E-2],"categories":[],"categories_nodes":[],"categories_segments":[],"categories_sizes":[],"default_left":[0,0,0,0,0,0,0,0,0,0,0,0,0,0,0,0,0,0,0,0,0,0,0,0,0,0,0,0,0,0,0,0,0,0,0,0,0,0,0,0,0,0,0],"id":21,"left_children":[1,3,5,7,9,11,-1,13,15,17,19,-1,-1,-1,21,-1,-1,23,25,27,29,31,-1,33,35,37,-1,39,-1,-1,41,-1,-1,-1,-1,-1,-1,-1,-1,-1,-1,-1,-1],"loss_changes":[1.36467E0,5.6894803E-1,8.634279E-1,2.4235588E-1,3.9346328E-1,8.244315E-1,0E0,3.821209E-1,5.564396E-1,6.329916E-1,5.8504635E-1,0E0,0E0,0E0,8.384868E-1,0E0,0E0,1.480402E0,1.0856404E0,1.8227248E0,3.0309482E0,5.33311E-1,0E0,7.365117E-1,3.7630272E0,1.1486253E0,0E0,1.1453376E0,0E0,0E0,1.9421266E0,0E0,0E0,0E0,0E0,0E0,0E0,0E0,0E0,0E0,0E0,0E0,0E0],"parents":[2147483647,0,0,1,1,2,2,3,3,4,4,5,5,7,7,8,8,9,9,10,10,14,14,17,17,18,18,19,19,20,20,21,21,23,23,24,24,25,25,27,27,30,30],"right_children":[2,4,6,8,10,12,-1,14,16,18,20,-1,-1,-1,22,-1,-1,24,26,28,30,32,-1,34,36,38,-1,40,-1,-1,42,-1,-1,-1,-1,-1,-1,-1,-1,-1,-1,-1,-1],"split_conditions":[2.6E1,4E0,2.3E1,3E0,6E0,1.9E1,-2.2627105E-1,4E0,5E0,2.3E1,1.4E1,-1.5555838E-1,9.195765E-2,1.1511087E-1,3E0,1.7479971E-1,-1.2221667E-2,2E1,5E0,1.4E1,1.2E1,2E0,1.2924881E-1,1.6E1,2.2E1,3E0,2.1880169E-1,5E0,-2.1933801E-1,-2.7033466E-1,2E0,-3.5392384E-3,-1.7399332E-1,-3.0457375E-3,4.5593478E-2,-2.7966377E-1,1.13248825E-1,1.0968618E-1,-1.873166E-1,1.1511514E-1,-1.0849699E-1,-2.2131431E-1,9.073043E-2],"split_indices":[0,2,2,3,1,2,0,0,3,2,0,0,0,0,1,0,0,2,3,2,2,1,0,2,0,3,0,3,0,0,3,0,0,0,0,0,0,0,0,0,0,0,0],"split_type":[0,0,0,0,0,0,0,0,0,0,0,0,0,0,0,0,0,0,0,0,0,0,0,0,0,0,0,0,0,0,0,0,0,0,0,0,0,0,0,0,0,0,0],"sum_hessian":[3.1575156E2,3.0978253E2,5.969011E0,1.5647365E1,2.9413516E2,3.037152E0,2.931859E0,1.079583E1,4.851535E0,2.70789E2,2.3346169E1,1.0326266E0,2.0045254E0,2.1389704E0,8.656859E0,2.725537E0,2.125998E0,2.6585422E2,4.9347773E0,1.1003369E1,1.2342799E1,6.6756897E0,1.9811697E0,2.585137E2,7.3405294E0,2.7713969E0,2.1633804E0,9.497268E0,1.5061015E0,3.853947E0,8.4888525E0,5.2319913E0,1.4436984E0,2.2757588E2,3.0937815E1,4.355779E0,2.98475E0,1.6367948E0,1.1346022E0,7.654444E0,1.8428234E0,1.3088317E0,7.1800203E0],"tree_param":{"num_deleted":"0","num_feature":"4","num_nodes":"43","size_leaf_vector":"1"}},{"base_weights":[-8.263302E-3,-2.7154228E-3,-1.9114068E-1,2.3972793E-1,-8.755299E-3,2.0307024E-1,8.360979E-3,3.555484E-2,-3.86462E-2,-3.376073E-1,1.5482448E-1,2.0752835E-1,-6.6767775E-2,-1.6154538E-1,3.397256E-2,8.021878E-3,-1.3970985E-1,7.73365E-2,5.6930023E-1,-1.9581929E-1,1.4455342E-1,-7.869128E-2,-9.400996E-1,1.5231812E-1,-1.971603E-1,-1.627656E-2,1.2840506E-1,3.299421E-1,1.2676083E-2,4.3829747E-2,-1.2567773E-1,1.5932792E-1,-7.086673E-2,-7.534531E-2,5.8443468E-2,-3.6665618E-1,5.5860393E-2,1.055226E-2,8.855456E-2,-1.09974846E-1,7.0914516E-4],"categories":[],"categories_nodes":[],"categories_segments":[],"categories_sizes":[],"default_left":[0,0,0,0,0,0,0,0,0,0,0,0,0,0,0,0,0,0,0,0,0,0,0,0,0,0,0,0,0,0,0,0,0,0,0,0,0,0,0,0,0],"id":22,"left_children":[1,3,-1,5,7,-1,9,11,13,15,-1,17,19,21,23,-1,-1,25,27,29,31,33,35,37,39,-1,-1,-1,-1,-1,-1,-1,-1,-1,-1,-1,-1,-1,-1,-1,-1],"loss_changes":[1.0981936E0,4.6118093E-1,0E0,7.6869667E-1,4.0779388E-1,0E0,1.2314583E0,2.1982E0,1.6451638E0,2.0772484E-1,0E0,2.1484506E0,2.1713815E0,4.3389783E0,3.2115335E0,0E0,0E0,1.6562636E0,3.353927E0,3.815412E0,4.5954704E0,3.0168648E0,2.2891464E0,1.2864239E0,1.3470247E0,0E0,0E0,0E0,0E0,0E0,0E0,0E0,0E0,0E0,0E0,0E0,0E0,0E0,0E0,0E0,0E0],"parents":[2147483647,0,0,1,1,3,3,4,4,6,6,7,7,8,8,9,9,11,11,12,12,13,13,14,14,17,17,18,18,19,19,20,20,21,21,22,22,23,23,24,24],"right_children":[2,4,-1,6,8,-1,10,12,14,16,-1,18,20,22,24,-1,-1,26,28,30,32,34,36,38,40,-1,-1,-1,-1,-1,-1,-1,-1,-1,-1,-1,-1,-1,-1,-1,-1],"split_conditions":[1.1E1,3E0,-1.9114068E-1,1E0,2E0,2.0307024E-1,2E0,1.2E1,1.2E1,6E0,1.5482448E-1,1.1E1,1.8E1,1.3E1,1.8E1,8.021878E-3,-1.3970985E-1,3E0,1E0,1E0,1.5E1,3E0,1.7E1,1.2E1,4E0,-1.627656E-2,1.2840506E-1,3.299421E-1,1.2676083E-2,4.3829747E-2,-1.2567773E-1,1.5932792E-1,-7.086673E-2,-7.534531E-2,5.8443468E-2,-3.6665618E-1,5.5860393E-2,1.055226E-2,8.855456E-2,-1.09974846E-1,7.0914516E-4],"split_indices":[1,2,0,1,3,0,3,0,0,0,0,2,0,2,0,0,0,1,3,3,2,1,2,2,1,0,0,0,0,0,0,0,0,0,0,0,0,0,0,0,0],"split_type":[0,0,0,0,0,0,0,0,0,0,0,0,0,0,0,0,0,0,0,0,0,0,0,0,0,0,0,0,0,0,0,0,0,0,0,0,0,0,0,0,0],"sum_hessian":[3.1426306E2,3.125104E2,1.7526331E0,6.6557264E0,3.058547E2,1.6369727E0,5.0187535E0,1.2313315E2,1.8272154E2,3.1841083E0,1.8346454E0,4.554968E1,7.758347E1,6.7411125E1,1.1531042E2,1.0340607E0,2.1500475E0,3.4388107E1,1.11615715E1,4.8213425E1,2.9370047E1,6.192239E1,5.488736E0,7.6487816E1,3.8822598E1,2.5619686E1,8.768421E0,5.020936E0,6.140636E0,1.9173906E1,2.9039518E1,1.4378815E1,1.4991233E1,3.8026287E1,2.3896103E1,4.3213086E0,1.1674275E0,4.271172E1,3.3776096E1,2.0542229E1,1.828037E1],"tree_param":{"num_deleted":"0","num_feature":"4","num_nodes":"41","size_leaf_vector":"1"}},{"base_weights":[-5.7984004E-3,5.4199677E-3,-2.7389762E-1,6.563342E-2,-1.6491333E-2,-6.6269174E-2,-2.2324179E-1,1.4531569E-1,-2.4493773E-2,-3.75857E-2,5.6328982E-2,-2.487445E-1,3.1690595E-1,1.741604E-1,-1.4443098E-1,7.074999E-2,-3.0596912E-1,1.5788993E-1,-6.866316E-2,-2.3343821E-1,1.2628418E-1,-5.240923E-2,-1.9058754E-1,1.3532735E-1,-4.7775516E-3,9.108952E-2,4.4426805E-1,-8.225671E-2,4.9485257E-1,-7.8830856E-1,1.04875535E-1,2.2225551E-1,-1.1547799E-1,3.9239207E-1,-7.939764E-2,5.8344585E-1,4.847711E-2,-3.4308463E-1,1.18309215E-1,7.113124E-2,-1.0246489E-2,-3.671459E-2,1.708558E-1,5.846981E-3,-1.9430251E-1,2.2692421E-1,-3.0877616E-2,-3.3862263E-1,-5.039749E-2,-9.275363E-2,1.4754193E-1,1.0978616E-3,1.1440575E-1,3.055097E-2,1.4022806E-1,-1.18561E-1,-1.9131836E-2,2.4174434E-1,-9.9560395E-2,-5.78615E-2,4.924072E-2,3.3668697E-2,-2.449693E-1],"categories":[],"categories_nodes":[],"categories_segments":[],"categories_sizes":[],"default_left":[0,0,0,0,0,0,0,0,0,0,0,0,0,0,0,0,0,0,0,0,0,0,0,0,0,0,0,0,0,0,0,0,0,0,0,0,0,0,0,0,0,0,0,0,0,0,0,0,0,0,0,0,0,0,0,0,0,0,0,0,0,0,0],"id":23,"left_children":[1,3,5,7,9,11,-1,13,15,17,19,21,23,25,-1,27,29,31,33,-1,35,37,-1,-1,-1,39,41,43,45,47,49,51,-1,53,55,57,59,61,-1,-1,-1,-1,-1,-1,-1,-1,-1,-1,-1,-1,-1,-1,-1,-1,-1,-1,-1,-1,-1,-1,-1,-1,-1],"loss_changes":[9.446216E-1,3.994841E-1,1.1822519E0,5.835916E-1,3.4343803E-1,7.674068E-1,0E0,8.614355E-1,1.0606303E0,1.0611334E0,3.0350294E0,5.1551676E-1,1.6870838E-1,8.986491E-1,0E0,1.9724466E0,2.0615854E0,9.2475915E-1,7.728974E-1,0E0,1.6534142E0,8.9963025E-1,0E0,0E0,0E0,6.164738E-1,7.5008583E-1,1.320503E0,1.334193E0,8.051915E-1,1.1574242E0,7.6744556E-1,0E0,3.0411482E-2,7.0160323E-1,1.6485455E0,1.1898785E0,9.7562104E-1,0E0,0E0,0E0,0E0,0E0,0E0,0E0,0E0,0E0,0E0,0E0,0E0,0E0,0E0,0E0,0E0,0E0,0E0,0E0,0E0,0E0,0E0,0E0,0E0,0E0],"parents":[2147483647,0,0,1,1,2,2,3,3,4,4,5,5,7,7,8,8,9,9,10,10,11,11,12,12,13,13,15,15,16,16,17,17,18,18,20,20,21,21,25,25,26,26,27,27,28,28,29,29,30,30,31,31,33,33,34,34,35,35,36,36,37,37],"right_children":[2,4,6,8,10,12,-1,14,16,18,20,22,24,26,-1,28,30,32,34,-1,36,38,-1,-1,-1,40,42,44,46,48,50,52,-1,54,56,58,60,62,-1,-1,-1,-1,-1,-1,-1,-1,-1,-1,-1,-1,-1,-1,-1,-1,-1,-1,-1,-1,-1,-1,-1,-1,-1],"split_conditions":[7E0,8E0,1.7E1,1E1,1.6E1,1.2E1,-2.2324179E-1,6E0,4E0,1E0,1E0,1.4E1,8E0,3E0,-1.4443098E-1,3E0,5E0,2E1,6E0,-2.3343821E-1,1.4E1,1.2E1,-1.9058754E-1,1.3532735E-1,-4.7775516E-3,2E0,1E0,4E0,1.4E1,4E0,6E0,1.2E1,-1.1547799E-1,3E0,8E0,4E0,3E0,1E1,1.18309215E-1,7.113124E-2,-1.0246489E-2,-3.671459E-2,1.708558E-1,5.846981E-3,-1.9430251E-1,2.2692421E-1,-3.0877616E-2,-3.3862263E-1,-5.039749E-2,-9.275363E-2,1.4754193E-1,1.0978616E-3,1.1440575E-1,3.055097E-2,1.4022806E-1,-1.18561E-1,-1.9131836E-2,2.4174434E-1,-9.9560395E-2,-5.78615E-2,4.924072E-2,3.3668697E-2,-2.449693E-1],"split_indices":[1,2,2,0,2,2,0,3,1,1,1,0,1,1,0,1,1,0,0,0,0,0,0,0,0,3,3,3,0,3,2,0,0,3,0,1,1,0,0,0,0,0,0,0,0,0,0,0,0,0,0,0,0,0,0,0,0,0,0,0,0,0,0],"split_type":[0,0,0,0,0,0,0,0,0,0,0,0,0,0,0,0,0,0,0,0,0,0,0,0,0,0,0,0,0,0,0,0,0,0,0,0,0,0,0,0,0,0,0,0,0,0,0,0,0,0,0,0,0,0,0,0,0,0,0,0,0,0,0],"sum_hessian":[3.125809E2,3.0096698E2,1.1613906E1,7.976713E1,2.2119986E2,8.848086E0,2.7658198E0,4.201179E1,3.7755337E1,1.7189088E2,4.930897E1,6.231405E0,2.616681E0,4.085372E1,1.1580691E0,2.876924E1,8.986098E0,2.3019411E1,1.4887148E2,3.0309734E0,4.6278E1,4.885528E0,1.3458769E0,1.6116198E0,1.0050613E0,3.226725E1,8.5864725E0,2.1734106E1,7.035133E0,3.7107987E0,5.2752995E0,2.110714E1,1.9122711E0,2.578269E0,1.462932E2,5.7856035E0,4.0492397E1,3.1004355E0,1.7850926E0,1.4485913E1,1.7781336E1,1.5585114E0,7.0279613E0,1.9237806E1,2.4963005E0,4.709212E0,2.325921E0,1.8667139E0,1.844085E0,2.645403E0,2.6298966E0,9.32196E0,1.178518E1,1.0129678E0,1.5653012E0,5.7515297E0,1.4054167E2,4.7510114E0,1.0345922E0,1.2901922E1,2.7590475E1,1.9694843E0,1.130951E0],"tree_param":{"num_deleted":"0","num_feature":"4","num_nodes":"63","size_leaf_vector":"1"}},{"base_weights":[-6.497105E-3,-2.158393E-3,-1.7317021E-1,9.30855E-3,-1.3337955E-1,5.4015205E-3,1.0359644E-1,-7.578305E-2,-4.5769766E-1,9.8826885E-3,-1.7752767E-1,1.0860736E-1,-1.2900066E-1,-1.8499373E-1,-1.453083E-2,5.131426E-3,1.3234134E-1,-1.8908258E-1,9.280902E-2,4.5524766E-3,-9.289727E-2,-2.5960052E-2,-1.5167555E-1],"categories":[],"categories_nodes":[],"categories_segments":[],"categories_sizes":[],"default_left":[0,0,0,0,0,0,0,0,0,0,0,0,0,0,0,0,0,0,0,0,0,0,0],"id":24,"left_children":[1,3,-1,5,7,9,-1,11,13,15,-1,-1,17,-1,-1,19,-1,21,-1,-1,-1,-1,-1],"loss_changes":[7.6918346E-1,4.6737257E-1,0E0,3.73365E-1,4.3156576E-1,7.646275E-1,0E0,5.684753E-1,2.0209593E-1,5.7642484E-1,0E0,0E0,6.038122E-1,0E0,0E0,8.9107406E-1,0E0,5.674063E-1,0E0,0E0,0E0,0E0,0E0],"parents":[2147483647,0,0,1,1,3,3,4,4,5,5,7,7,8,8,9,9,12,12,15,15,17,17],"right_children":[2,4,-1,6,8,10,-1,12,14,16,-1,-1,18,-1,-1,20,-1,22,-1,-1,-1,-1,-1],"split_conditions":[2.6E1,6E0,-1.7317021E-1,2.5E1,6E0,2.4E1,1.0359644E-1,8E0,1.6E1,2.3E1,-1.7752767E-1,1.0860736E-1,2E1,-1.8499373E-1,-1.453083E-2,2E1,1.3234134E-1,2E1,9.280902E-2,4.5524766E-3,-9.289727E-2,-2.5960052E-2,-1.5167555E-1],"split_indices":[2,1,0,2,3,2,0,0,0,2,0,0,2,0,0,2,0,0,0,0,0,0,0],"split_type":[0,0,0,0,0,0,0,0,0,0,0,0,0,0,0,0,0,0,0,0,0,0,0],"sum_hessian":[3.1012576E2,3.087822E2,1.3435644E0,2.8482172E2,2.396048E1,2.825524E2,2.2693357E0,2.1394623E1,2.565858E0,2.81424E2,1.1283911E0,1.6898599E0,1.9704762E1,1.4831195E0,1.0827384E0,2.7935812E2,2.0658708E0,1.7829697E1,1.8750648E0,2.7164304E2,7.7151084E0,1.4428247E1,3.4014494E0],"tree_param":{"num_deleted":"0","num_feature":"4","num_nodes":"23","size_leaf_vector":"1"}},{"base_weights":[-6.210855E-3,-2.5447556E-3,-1.6023618E-1,1.3681959E-1,-9.977168E-3,4.732409E-2,4.715601E-1,7.489813E-3,-7.400121E-2,1.2206568E-1,-9.884721E-2,1.9009309E-1,2.466325E-2,-1.1345452E-2,1.9903353E-1,-1.976658E-2,-3.8971898E-1,-2.45352E-2,4.3138513E-1,1.3502525E-2,-1.646581E-1,-2.6689237E-1,4.12925E-1,-1.1667072E-1,4.452319E-1,-2.239464E-1,2.1996072E-1,8.403751E-2,-4.009213E-2,1.7713316E-1,4.2927857E-2,-1.761125E-3,4.6956617E-2,-1.2424869E-1,6.653085E-2,6.408555E-2,-1.2695976E-1,2.4648798E-1,1.9926261E-2,-9.971887E-3,-2.0065013E-1,2.1464318E-1,-2.648763E-3,1.8194038E-1,-4.6954203E-2],"categories":[],"categories_nodes":[],"categories_segments":[],"categories_sizes":[],"default_left":[0,0,0,0,0,0,0,0,0,0,0,0,0,0,0,0,0,0,0,0,0,0,0,0,0,0,0,0,0,0,0,0,0,0,0,0,0,0,0,0,0,0,0,0,0],"id":25,"left_children":[1,3,-1,5,7,9,11,13,15,17,-1,-1,-1,19,21,23,25,27,29,31,33,35,37,39,41,-1,43,-1,-1,-1,-1,-1,-1,-1,-1,-1,-1,-1,-1,-1,-1,-1,-1,-1,-1],"loss_changes":[5.983688E-1,3.2116768E-1,0E0,4.480191E-1,3.2938728E-1,4.2041537E-1,1.4987928E-1,8.3899957E-1,1.0730615E0,5.545031E-1,0E0,0E0,0E0,8.102535E-1,2.1849186E0,2.5265965E0,2.165258E0,3.393889E-1,9.483898E-2,5.092061E-1,2.9513812E0,6.2798357E-1,2.0216544E0,2.1079288E0,1.1939768E0,0E0,7.0147943E-1,0E0,0E0,0E0,0E0,0E0,0E0,0E0,0E0,0E0,0E0,0E0,0E0,0E0,0E0,0E0,0E0,0E0,0E0],"parents":[2147483647,0,0,1,1,3,3,4,4,5,5,6,6,7,7,8,8,9,9,13,13,14,14,15,15,16,16,17,17,18,18,19,19,20,20,21,21,22,22,23,23,24,24,26,26],"right_children":[2,4,-1,6,8,10,12,14,16,18,-1,-1,-1,20,22,24,26,28,30,32,34,36,38,40,42,-1,44,-1,-1,-1,-1,-1,-1,-1,-1,-1,-1,-1,-1,-1,-1,-1,-1,-1,-1],"split_conditions":[2.6E1,4E0,-1.6023618E-1,1.2E1,4E0,1E1,2E0,1.8E1,1.8E1,3E0,-9.884721E-2,1.9009309E-1,2.466325E-2,1.5E1,3E0,1.5E1,2.3E1,4E0,5E0,5E0,4E0,1.6E1,2E1,1.3E1,1.6E1,-2.239464E-1,3E0,8.403751E-2,-4.009213E-2,1.7713316E-1,4.2927857E-2,-1.761125E-3,4.6956617E-2,-1.2424869E-1,6.653085E-2,6.408555E-2,-1.2695976E-1,2.4648798E-1,1.9926261E-2,-9.971887E-3,-2.0065013E-1,2.1464318E-1,-2.648763E-3,1.8194038E-1,-4.6954203E-2],"split_indices":[2,2,0,0,3,0,1,2,2,3,0,0,0,2,1,2,2,0,3,1,1,0,2,2,0,0,1,0,0,0,0,0,0,0,0,0,0,0,0,0,0,0,0,0,0],"split_type":[0,0,0,0,0,0,0,0,0,0,0,0,0,0,0,0,0,0,0,0,0,0,0,0,0,0,0,0,0,0,0,0,0,0,0,0,0,0,0,0,0,0,0,0,0],"sum_hessian":[3.0887778E2,3.0774542E2,1.1323354E0,1.4699943E1,2.930455E2,1.2499483E1,2.2004592E0,2.3092717E2,6.2118324E1,1.0994728E1,1.5047559E0,1.1106576E0,1.0898018E0,2.1110876E2,1.9818405E1,5.391868E1,8.199649E0,8.084017E0,2.910711E0,1.8245026E2,2.8658495E1,6.1575174E0,1.3660889E1,4.523992E1,8.678755E0,5.031153E0,3.1684961E0,1.7183373E0,6.3656793E0,1.200364E0,1.7103472E0,1.6152904E2,2.0921225E1,1.7370886E1,1.1287608E1,1.4213645E0,4.7361526E0,5.638771E0,8.022118E0,4.0222546E1,5.017375E0,5.0797133E0,3.5990417E0,1.2619768E0,1.9065192E0],"tree_param":{"num_deleted":"0","num_feature":"4","num_nodes":"45","size_leaf_vector":"1"}},{"base_weights":[-4.573565E-3,9.034164E-3,-1.5799339E-1,1.2902623E-2,-1.5859729E-1,-1.00305535E-1,-1.8923752E-1,1.8306935E-2,-2.1177047E-1,-1.6703142E-1,1.645652E-1,1.7121494E-4,1.18630126E-1,1.8278861E-1,-5.1193357E-1,-1.7947154E-2,-3.0443648E-1,2.25487E-2,-1.1511819E-1,-1.9123687E-1,1.7951323E-1,1.03861324E-1,-2.5146234E-1,1.5983263E-1,-1.9798404E-1,-2.4682209E-1,-2.6211867E-2,1.5369029E-3,5.1331963E-2,2.2208497E-4,-1.8871722E-1,1.9409588E-1,2.8614147E-2,5.5343553E-2,-2.0807625E-1,-1.2739943E-1,1.1328606E-1],"categories":[],"categories_nodes":[],"categories_segments":[],"categories_sizes":[],"default_left":[0,0,0,0,0,0,0,0,0,0,0,0,0,0,0,0,0,0,0,0,0,0,0,0,0,0,0,0,0,0,0,0,0,0,0,0,0],"id":26,"left_children":[1,3,5,7,-1,9,-1,11,13,15,-1,17,19,-1,21,23,25,27,29,-1,31,-1,-1,-1,33,-1,35,-1,-1,-1,-1,-1,-1,-1,-1,-1,-1],"loss_changes":[6.453514E-1,5.9808296E-1,6.235738E-1,3.4774047E-1,0E0,1.1148324E0,0E0,5.048165E-1,1.9709722E0,4.4921905E-1,0E0,6.114257E-1,2.0698302E0,0E0,1.8225628E0,1.2663535E0,1.6350265E0,5.1290023E-1,2.2943265E0,0E0,1.5151376E0,0E0,0E0,0E0,1.9386687E0,0E0,1.5293739E0,0E0,0E0,0E0,0E0,0E0,0E0,0E0,0E0,0E0,0E0],"parents":[2147483647,0,0,1,1,2,2,3,3,5,5,7,7,8,8,9,9,11,11,12,12,14,14,15,15,16,16,17,17,18,18,20,20,24,24,26,26],"right_children":[2,4,6,8,-1,10,-1,12,14,16,-1,18,20,-1,22,24,26,28,30,-1,32,-1,-1,-1,34,-1,36,-1,-1,-1,-1,-1,-1,-1,-1,-1,-1],"split_conditions":[6E0,3E1,2.3E1,7E0,-1.5859729E-1,2E1,-1.8923752E-1,1.6E1,1E0,1.4E1,1.645652E-1,1.3E1,1E0,1.8278861E-1,9E0,2E0,1.2E1,1.8E1,4E0,-1.9123687E-1,1.4E1,1.03861324E-1,-2.5146234E-1,1.5983263E-1,1E1,-2.4682209E-1,3E0,1.5369029E-3,5.1331963E-2,2.2208497E-4,-1.8871722E-1,1.9409588E-1,2.8614147E-2,5.5343553E-2,-2.0807625E-1,-1.2739943E-1,1.1328606E-1],"split_indices":[1,0,2,3,0,2,0,2,1,0,0,2,1,0,2,3,2,0,3,0,0,0,0,0,2,0,3,0,0,0,0,0,0,0,0,0,0],"split_type":[0,0,0,0,0,0,0,0,0,0,0,0,0,0,0,0,0,0,0,0,0,0,0,0,0,0,0,0,0,0,0,0,0,0,0,0,0],"sum_hessian":[3.0743774E2,2.8325522E2,2.4182499E1,2.8220093E2,1.0543095E0,2.2633104E1,1.549395E0,2.764692E2,5.731705E0,2.1195969E1,1.4371365E0,2.3499092E2,4.14783E1,1.2587208E0,4.4729843E0,1.07082E1,1.0487767E1,1.9746725E2,3.7523655E1,2.3853457E0,3.9092953E1,1.2153618E0,3.2576227E0,2.1554735E0,8.552727E0,2.9797297E0,7.508038E0,1.7766216E2,1.9805113E1,3.1435614E1,6.0880423E0,4.942197E0,3.4150757E1,5.1817126E0,3.371014E0,3.753222E0,3.7548158E0],"tree_param":{"num_deleted":"0","num_feature":"4","num_nodes":"37","size_leaf_vector":"1"}},{"base_weights":[-6.086758E-3,1.5702904E-3,-2.092746E-1,1.809781E-1,-2.8919692E-3,-4.4407316E-2,-1.9913043E-1,1.8150148E-1,-1.3517636E-2,2.1641733E-1,-7.062085E-3,-3.937209E-1,1.8795292E-1,-1.0646274E-1,9.943225E-2,2.0907305E-1,-2.2188996E-1,-1.385808E-1,1.7404692E-3,-1.9790225E-3,-2.302856E-1,-2.9738499E-2,9.005297E-2,9.1241755E-2,-2.2767147E-1,-5.00148E-1,-3.729482E-2,6.286396E-2,-1.2703153E-2,-2.0085585E-1,-9.304018E-3,3.8646944E-2,-1.2783597E-1,2.4452554E-2,-8.4564164E-2,6.2854155E-3,-1.6591474E-2],"categories":[],"categories_nodes":[],"categories_segments":[],"categories_sizes":[],"default_left":[0,0,0,0,0,0,0,0,0,0,0,0,0,0,0,0,0,0,0,0,0,0,0,0,0,0,0,0,0,0,0,0,0,0,0,0,0],"id":27,"left_children":[1,3,5,7,9,11,-1,-1,13,15,17,19,21,-1,-1,-1,23,25,27,-1,-1,-1,-1,-1,-1,29,31,33,35,-1,-1,-1,-1,-1,-1,-1,-1],"loss_changes":[4.7708395E-1,2.3772877E-1,8.0494916E-1,6.0250396E-1,2.6683E-1,8.242514E-1,0E0,0E0,8.1455064E-1,1.3013085E0,3.3093446E-1,5.7616556E-1,2.303987E-1,0E0,0E0,0E0,1.2494099E0,6.380262E-1,2.3803236E-1,0E0,0E0,0E0,0E0,0E0,0E0,2.8462106E-1,1.0294455E0,3.5418597E-1,3.139811E-1,0E0,0E0,0E0,0E0,0E0,0E0,0E0,0E0],"parents":[2147483647,0,0,1,1,2,2,3,3,4,4,5,5,8,8,9,9,10,10,11,11,12,12,16,16,17,17,18,18,25,25,26,26,27,27,28,28],"right_children":[2,4,6,8,10,12,-1,-1,14,16,18,20,22,-1,-1,-1,24,26,28,-1,-1,-1,-1,-1,-1,30,32,34,36,-1,-1,-1,-1,-1,-1,-1,-1],"split_conditions":[7E0,3E0,1.7E1,1E0,4E0,1.2E1,-1.9913043E-1,1.8150148E-1,1E0,5E0,5E0,1E1,3E0,-1.0646274E-1,9.943225E-2,2.0907305E-1,3E0,1E0,8E0,-1.9790225E-3,-2.302856E-1,-2.9738499E-2,9.005297E-2,9.1241755E-2,-2.2767147E-1,1.2E1,1.2E1,6E0,3E0,-2.0085585E-1,-9.304018E-3,3.8646944E-2,-1.2783597E-1,2.4452554E-2,-8.4564164E-2,6.2854155E-3,-1.6591474E-2],"split_indices":[1,2,2,1,0,0,0,0,3,2,2,0,3,0,0,0,3,1,2,0,0,0,0,0,0,0,0,1,1,0,0,0,0,0,0,0,0],"split_type":[0,0,0,0,0,0,0,0,0,0,0,0,0,0,0,0,0,0,0,0,0,0,0,0,0,0,0,0,0,0,0,0,0,0,0,0,0],"sum_hessian":[3.054337E2,2.952978E2,1.01359005E1,6.206445E0,2.8909134E2,8.24334E0,1.8925605E0,1.2879368E0,4.9185085E0,4.444692E0,2.8464664E2,3.0155451E0,5.2277946E0,2.457705E0,2.4608033E0,1.8388528E0,2.6058393E0,1.6931427E1,2.677152E2,1.9815462E0,1.033999E0,1.5020537E0,3.7257407E0,1.5354494E0,1.07039E0,2.8433511E0,1.4088077E1,5.052935E1,2.1718587E2,1.7752837E0,1.0680676E0,1.0339438E1,3.7486382E0,4.866121E1,1.868138E0,1.2161815E2,9.556771E1],"tree_param":{"num_deleted":"0","num_feature":"4","num_nodes":"37","size_leaf_vector":"1"}},{"base_weights":[-5.730898E-3,-8.5380004E-4,-2.6547748E-1,4.49941E-3,-1.5025178E-1,-1.824731E-1,-4.64468E-2,1.0959993E-1,-1.2949659E-3,-3.8078986E-2,-1.6607474E-1,7.9072386E-2,-1.607409E-1,2.5153644E-2,1.3046996E-1,-1.3225522E-2,6.109218E-2,-2.9745263E-1,1.1164097E-1,7.959817E-2,-6.975153E-2,8.7423265E-2,-3.048412E-2,-5.5559516E-1,1.05554946E-1,-1.5070951E-1,2.4471082E-2,2.9479274E-1,-8.7137766E-2,-1.1570709E-2,1.03303485E-1,-1.5792003E-2,1.1155418E-1,2.9004233E-2,-1.43021885E-2,-2.0887455E-1,-4.5211777E-2,1.216599E-1,1.5779959E-2,-4.1562635E-3,1.5797883E-1],"categories":[],"categories_nodes":[],"categories_segments":[],"categories_sizes":[],"default_left":[0,0,0,0,0,0,0,0,0,0,0,0,0,0,0,0,0,0,0,0,0,0,0,0,0,0,0,0,0,0,0,0,0,0,0,0,0,0,0,0,0],"id":28,"left_children":[1,3,5,7,9,-1,11,13,15,17,-1,-1,-1,19,-1,21,23,25,27,29,-1,31,33,35,37,-1,-1,39,-1,-1,-1,-1,-1,-1,-1,-1,-1,-1,-1,-1,-1],"loss_changes":[3.860508E-1,2.4084751E-1,3.9342055E-1,1.772901E-1,4.5022863E-1,0E0,8.253621E-1,4.069087E-1,2.0674214E-1,3.9142296E-1,0E0,0E0,0E0,2.0279957E-1,0E0,4.075428E-1,1.2813998E0,3.2437083E-1,5.6988484E-1,3.7588602E-1,0E0,1.3890159E0,4.4115698E-1,7.49526E-2,6.5277207E-1,0E0,0E0,3.6602908E-1,0E0,0E0,0E0,0E0,0E0,0E0,0E0,0E0,0E0,0E0,0E0,0E0,0E0],"parents":[2147483647,0,0,1,1,2,2,3,3,4,4,6,6,7,7,8,8,9,9,13,13,15,15,16,16,17,17,18,18,19,19,21,21,22,22,23,23,24,24,27,27],"right_children":[2,4,6,8,10,-1,12,14,16,18,-1,-1,-1,20,-1,22,24,26,28,30,-1,32,34,36,38,-1,-1,40,-1,-1,-1,-1,-1,-1,-1,-1,-1,-1,-1,-1,-1],"split_conditions":[2.4E1,7E0,3E0,4E0,6E0,-1.824731E-1,5E0,1.2E1,1.6E1,1.2E1,-1.6607474E-1,7.9072386E-2,-1.607409E-1,1E1,1.3046996E-1,1E0,1E0,8E0,1.6E1,3E0,-6.975153E-2,3E0,6E0,1.7E1,1.4E1,-1.5070951E-1,2.4471082E-2,1.1E1,-8.7137766E-2,-1.1570709E-2,1.03303485E-1,-1.5792003E-2,1.1155418E-1,2.9004233E-2,-1.43021885E-2,-2.0887455E-1,-4.5211777E-2,1.216599E-1,1.5779959E-2,-4.1562635E-3,1.5797883E-1],"split_indices":[2,1,1,2,3,0,1,0,2,0,0,0,0,0,0,1,1,1,2,3,0,3,2,2,0,0,0,2,0,0,0,0,0,0,0,0,0,0,0,0,0],"split_type":[0,0,0,0,0,0,0,0,0,0,0,0,0,0,0,0,0,0,0,0,0,0,0,0,0,0,0,0,0,0,0,0,0,0,0,0,0,0,0,0,0],"sum_hessian":[3.0392148E2,2.993049E2,4.616573E0,2.8988757E2,9.417333E0,1.1070871E0,3.5094857E0,1.4210861E1,2.756767E2,8.224404E0,1.1929288E0,2.4308538E0,1.0786319E0,1.213738E1,2.0734808E0,2.3208258E2,4.359412E1,2.648843E0,5.575561E0,1.0590606E1,1.5467746E0,3.3375816E1,1.9870677E2,2.1586368E0,4.1435482E1,1.5080954E0,1.1407475E0,4.0140686E0,1.5614924E0,7.9130206E0,2.6775844E0,2.2909208E1,1.0466609E1,2.3111443E1,1.7559532E2,1.0680183E0,1.0906184E0,5.218104E0,3.6217377E1,2.1249385E0,1.8891302E0],"tree_param":{"num_deleted":"0","num_feature":"4","num_nodes":"41","size_leaf_vector":"1"}},{"base_weights":[-5.340045E-3,-9.5429085E-4,-2.4602295E-1,2.7425142E-3,-1.8548378E-1,-1.7157416E-1,-3.0990448E-2,-3.0628855E-3,2.4377899E-1,-1.9564609E-1,1.6689631E-1,9.154503E-2,-2.3891418E-1,5.1069492E-3,-2.9644546E-1,-1.7965621E-1,6.3413376E-1,2.15819E-1,-9.9014714E-2,-1.8108566E-1,6.933552E-2,3.9500263E-2,-1.9688692E-2,3.3415182E-4,-2.2494356E-1,-2.1816148E-1,2.0402154E-1,3.1167287E-1,1.2510489E-2,-4.3869324E-4,6.0038384E-2,-3.5548296E-2,1.4576782E-2,-1.7079096E-1,1.6593304E-1],"categories":[],"categories_nodes":[],"categories_segments":[],"categories_sizes":[],"default_left":[0,0,0,0,0,0,0,0,0,0,0,0,0,0,0,0,0,0,0,0,0,0,0,0,0,0,0,0,0,0,0,0,0,0,0],"id":29,"left_children":[1,3,5,7,9,-1,11,13,15,-1,17,-1,19,21,23,25,27,-1,-1,-1,-1,29,31,33,-1,-1,-1,-1,-1,-1,-1,-1,-1,-1,-1],"loss_changes":[3.2084745E-1,2.0498055E-1,3.6347252E-1,4.1331473E-1,1.0793122E0,0E0,3.7585235E-1,6.939495E-1,1.2621243E0,0E0,1.3792635E0,0E0,6.9472766E-1,2.4130759E-1,1.0556195E0,2.4299316E0,8.763741E-1,0E0,0E0,0E0,0E0,7.799126E-1,1.1159035E0,2.122327E0,0E0,0E0,0E0,0E0,0E0,0E0,0E0,0E0,0E0,0E0,0E0],"parents":[2147483647,0,0,1,1,2,2,3,3,4,4,6,6,7,7,8,8,10,10,12,12,13,13,14,14,15,15,16,16,21,21,22,22,23,23],"right_children":[2,4,6,8,10,-1,12,14,16,-1,18,-1,20,22,24,26,28,-1,-1,-1,-1,30,32,34,-1,-1,-1,-1,-1,-1,-1,-1,-1,-1,-1],"split_conditions":[2.4E1,2.4E1,2.5E1,2.1E1,1.9E1,-1.7157416E-1,3E0,1.9E1,2.2E1,-1.9564609E-1,2.1E1,9.154503E-2,6E0,2E0,3E0,2.3E1,2E0,2.15819E-1,-9.9014714E-2,-1.8108566E-1,6.933552E-2,1.8E1,1.2E1,2E0,-2.2494356E-1,-2.1816148E-1,2.0402154E-1,3.1167287E-1,1.2510489E-2,-4.3869324E-4,6.0038384E-2,-3.5548296E-2,1.4576782E-2,-1.7079096E-1,1.6593304E-1],"split_indices":[2,0,2,2,2,0,3,2,0,0,2,0,3,3,3,2,3,0,0,0,0,0,0,3,0,0,0,0,0,0,0,0,0,0,0],"split_type":[0,0,0,0,0,0,0,0,0,0,0,0,0,0,0,0,0,0,0,0,0,0,0,0,0,0,0,0,0,0,0,0,0,0,0],"sum_hessian":[3.0317725E2,2.9873758E2,4.439668E0,2.938361E2,4.901481E0,1.105132E0,3.3345366E0,2.8788953E2,5.94657E0,1.7427641E0,3.158717E0,1.0956479E0,2.2388885E0,2.8104584E2,6.8437E0,3.1113317E0,2.8352382E0,1.2837809E0,1.8749359E0,1.1006627E0,1.1382257E0,1.1748825E2,1.6355759E2,4.740058E0,2.103642E0,1.9949324E0,1.1163992E0,1.2366617E0,1.5985765E0,9.440452E1,2.3083735E1,6.653653E1,9.702106E1,2.3197007E0,2.4203572E0],"tree_param":{"num_deleted":"0","num_feature":"4","num_nodes":"35","size_leaf_vector":"1"}},{"base_weights":[-5.079394E-3,5.1886006E-4,-1.5895471E-1,1.993227E-2,-3.0852655E-2,-2.3178404E-2,-1.8025818E-1,3.3670314E-2,-4.314247E-1,-9.38459E-2,9.675466E-2,-2.801867E-1,1.3588192E-1,1.4545263E-2,2.9962224E-1,-2.793905E-1,-8.793054E-2,-1.6819133E-1,9.197417E-2,2.4682051E-1,-1.2175022E-1,-1.3285373E-1,1.1099416E-2,-3.1851534E-2,2.3029423E-1,-2.0577641E-2,2.5967067E-1,5.731071E-1,-2.5754762E-1,7.886177E-2,-9.501491E-2,-4.9707852E-2,-4.8144668E-1,-1.20124735E-1,4.319129E-1,6.7236364E-1,1.2753159E-2,-2.294517E-1,6.441785E-2,1.16566256E-1,9.578305E-2,7.576709E-3,-6.480443E-2,1.7070709E-1,-3.3974588E-2,-4.2564906E-2,2.2659563E-1,-3.002214E-1,8.899426E-2,-6.7461215E-2,6.85425E-2,3.9367385E-2,-2.379597E-1,6.774721E-2,-8.772079E-2,2.1017721E-1,-3.21434E-2,-1.2432215E-1,3.1890032E-1,2.3022993E-1,-8.445357E-2,-1.7789087E-1,6.845037E-2,9.5787175E-2,-4.7875807E-2],"categories":[],"categories_nodes":[],"categories_segments":[],"categories_sizes":[],"default_left":[0,0,0,0,0,0,0,0,0,0,0,0,0,0,0,0,0,0,0,0,0,0,0,0,0,0,0,0,0,0,0,0,0,0,0,0,0,0,0,0,0,0,0,0,0,0,0,0,0,0,0,0,0,0,0,0,0,0,0,0,0,0,0,0,0],"id":30,"left_children":[1,3,5,7,9,11,-1,13,15,17,19,21,23,25,27,-1,29,31,33,35,37,-1,-1,-1,39,41,43,45,47,-1,-1,49,51,53,55,57,59,-1,61,63,-1,-1,-1,-1,-1,-1,-1,-1,-1,-1,-1,-1,-1,-1,-1,-1,-1,-1,-1,-1,-1,-1,-1,-1,-1],"loss_changes":[2.621598E-1,1.8000469E-1,6.270727E-1,1.1465448E0,9.173354E-1,4.1467494E-1,0E0,9.01501E-1,8.5646224E-1,1.0675312E0,1.270674E0,2.149368E-1,1.6988617E-1,1.4448487E0,1.9604348E0,0E0,4.318509E-1,2.007991E0,1.6675497E0,2.2585266E0,1.9737546E0,0E0,0E0,0E0,1.2307495E-2,1.3237466E0,2.4903255E0,1.1871934E0,2.1943262E0,0E0,0E0,2.0412486E0,2.9517188E0,9.3506724E-1,1.3535308E0,3.8611815E0,3.7033598E0,0E0,1.576491E0,2.5939175E-1,0E0,0E0,0E0,0E0,0E0,0E0,0E0,0E0,0E0,0E0,0E0,0E0,0E0,0E0,0E0,0E0,0E0,0E0,0E0,0E0,0E0,0E0,0E0,0E0,0E0],"parents":[2147483647,0,0,1,1,2,2,3,3,4,4,5,5,7,7,8,8,9,9,10,10,11,11,12,12,13,13,14,14,16,16,17,17,18,18,19,19,20,20,24,24,25,25,26,26,27,27,28,28,31,31,32,32,33,33,34,34,35,35,36,36,38,38,39,39],"right_children":[2,4,6,8,10,12,-1,14,16,18,20,22,24,26,28,-1,30,32,34,36,38,-1,-1,-1,40,42,44,46,48,-1,-1,50,52,54,56,58,60,-1,62,64,-1,-1,-1,-1,-1,-1,-1,-1,-1,-1,-1,-1,-1,-1,-1,-1,-1,-1,-1,-1,-1,-1,-1,-1,-1],"split_conditions":[7E0,1.2E1,2E1,2E1,4E0,1.2E1,-1.8025818E-1,1.8E1,1E0,1.7E1,1.7E1,8E0,3E0,1.1E1,3E0,-2.793905E-1,2E0,3E0,3E0,2E0,1.8E1,-1.3285373E-1,1.1099416E-2,-3.1851534E-2,1.5E1,4E0,1.2E1,9E0,4E0,7.886177E-2,-9.501491E-2,1.6E1,1.3E1,1.6E1,2E1,1.4E1,1.3E1,-2.294517E-1,1E0,1.4E1,9.578305E-2,7.576709E-3,-6.480443E-2,1.7070709E-1,-3.3974588E-2,-4.2564906E-2,2.2659563E-1,-3.002214E-1,8.899426E-2,-6.7461215E-2,6.85425E-2,3.9367385E-2,-2.379597E-1,6.774721E-2,-8.772079E-2,2.1017721E-1,-3.21434E-2,-1.2432215E-1,3.1890032E-1,2.3022993E-1,-8.445357E-2,-1.7789087E-1,6.845037E-2,9.5787175E-2,-4.7875807E-2],"split_indices":[1,2,0,0,1,0,0,0,3,2,2,1,3,2,1,0,1,1,1,3,0,0,0,0,2,1,0,2,1,0,0,0,2,0,2,2,2,0,3,0,0,0,0,0,0,0,0,0,0,0,0,0,0,0,0,0,0,0,0,0,0,0,0,0,0],"split_type":[0,0,0,0,0,0,0,0,0,0,0,0,0,0,0,0,0,0,0,0,0,0,0,0,0,0,0,0,0,0,0,0,0,0,0,0,0,0,0,0,0,0,0,0,0,0,0,0,0,0,0,0,0,0,0,0,0,0,0,0,0,0,0,0,0],"sum_hessian":[3.0323407E2,2.935508E2,9.683266E0,1.8156122E2,1.11989586E2,8.212433E0,1.4708327E0,1.770963E2,4.4649143E0,7.5154305E1,3.6835285E1,2.8484383E0,5.363995E0,1.6619933E2,1.0896982E1,1.1215281E0,3.3433862E0,5.3745815E1,2.1408487E1,2.1760746E1,1.5074539E1,1.6209865E0,1.2274519E0,1.4701862E0,3.8938086E0,1.4617117E2,2.0028149E1,7.290072E0,3.6069102E0,1.2609497E0,2.0824363E0,3.983688E1,1.3908936E1,1.3581299E1,7.827189E0,7.0574737E0,1.4703273E1,2.6864135E0,1.2388125E1,2.7232423E0,1.1705663E0,1.1910888E2,2.706229E1,1.0659644E1,9.368505E0,1.5254811E0,5.764591E0,1.1965519E0,2.4103584E0,2.4562378E1,1.5274502E1,4.8859315E0,9.023005E0,4.411605E0,9.169694E0,5.0236406E0,2.8035479E0,1.8499582E0,5.2075157E0,3.673683E0,1.102959E1,1.9477088E0,1.0440416E1,1.4803214E0,1.242921E0],"tree_param":{"num_deleted":"0","num_feature":"4","num_nodes":"65","size_leaf_vector":"1"}},{"base_weights":[-6.469054E-3,1.5521946E-2,-5.5545412E-2,2.371963E-2,-2.9169396E-1,-3.2515422E-1,-3.9339024E-3,1.0793134E-2,6.252796E-1,2.3315052E-2,-4.9606723E-1,2.5679186E-2,-2.6048905E-1,-8.810925E-2,1.0818402E-1,3.1790394E-2,-6.741484E-2,-2.448948E-2,3.2727134E-1,-4.1727472E-2,-1.9736291E-1,-2.184521E-1,1.5419266E-1,-2.3772184E-2,-2.459126E-1,4.7549295E-1,-1.2720095E-1,5.5276556E-3,2.1267359E-1,-1.7955834E-1,2.1061204E-1,-2.1529084E-1,1.5578741E-1,-6.5353274E-2,1.7232983E-1,6.258569E-1,-1.9530985E-1,-2.7425528E-1,6.1025953E-1,1.2984974E-2,-3.949159E-2,2.309605E-1,1.4486892E-2,-9.185067E-2,-2.4352001E-2,1.7912751E-1,-4.6548795E-2,1.4797795E-1,-1.2232132E-1,3.6939003E-2,-5.1108357E-2,-1.006212E-1,2.422273E-1,-1.7853501E-1,3.4832027E-2,3.5217524E-1,-1.9995611E-2],"categories":[],"categories_nodes":[],"categories_segments":[],"categories_sizes":[],"default_left":[0,0,0,0,0,0,0,0,0,0,0,0,0,0,0,0,0,0,0,0,0,0,0,0,0,0,0,0,0,0,0,0,0,0,0,0,0,0,0,0,0,0,0,0,0,0,0,0,0,0,0,0,0,0,0,0,0],"id":31,"left_children":[1,3,5,7,9,11,13,15,17,-1,19,21,-1,23,25,27,29,-1,-1,-1,-1,31,-1,33,-1,35,37,39,41,43,45,-1,47,49,-1,51,-1,53,55,-1,-1,-1,-1,-1,-1,-1,-1,-1,-1,-1,-1,-1,-1,-1,-1,-1,-1],"loss_changes":[3.2683402E-1,5.3417796E-1,1.3022836E0,1.5861108E0,4.550334E-1,2.8881652E0,7.611507E-1,3.3311895E-1,1.5016334E0,0E0,1.2146509E-1,1.317335E0,0E0,2.1475792E0,3.0520468E0,7.568619E-1,1.377869E0,0E0,0E0,0E0,0E0,1.5019048E0,0E0,1.1157941E0,0E0,2.7322493E0,2.5397842E0,7.326253E-1,1.8134091E0,3.633691E-1,1.904011E0,0E0,1.1661446E0,8.409511E-1,0E0,2.4731312E0,0E0,2.4400234E0,1.5842447E0,0E0,0E0,0E0,0E0,0E0,0E0,0E0,0E0,0E0,0E0,0E0,0E0,0E0,0E0,0E0,0E0,0E0,0E0],"parents":[2147483647,0,0,1,1,2,2,3,3,4,4,5,5,6,6,7,7,8,8,10,10,11,11,13,13,14,14,15,15,16,16,21,21,23,23,25,25,26,26,27,27,28,28,29,29,30,30,32,32,33,33,35,35,37,37,38,38],"right_children":[2,4,6,8,10,12,14,16,18,-1,20,22,-1,24,26,28,30,-1,-1,-1,-1,32,-1,34,-1,36,38,40,42,44,46,-1,48,50,-1,52,-1,54,56,-1,-1,-1,-1,-1,-1,-1,-1,-1,-1,-1,-1,-1,-1,-1,-1,-1,-1],"split_conditions":[1.6E1,1.8E1,1E0,1.7E1,3E0,2E1,2E1,1.2E1,3E0,2.3315052E-2,1.9E1,1.5E1,-2.6048905E-1,6E0,2E0,1.1E1,4E0,-2.448948E-2,3.2727134E-1,-4.1727472E-2,-1.9736291E-1,1.8E1,1.5419266E-1,5E0,-2.459126E-1,2.2E1,6E0,4E0,1E0,1.3E1,5E0,-2.1529084E-1,3E0,1.1E1,1.7232983E-1,1E0,-1.9530985E-1,1.9E1,1.8E1,1.2984974E-2,-3.949159E-2,2.309605E-1,1.4486892E-2,-9.185067E-2,-2.4352001E-2,1.7912751E-1,-4.6548795E-2,1.4797795E-1,-1.2232132E-1,3.6939003E-2,-5.1108357E-2,-1.006212E-1,2.422273E-1,-1.7853501E-1,3.4832027E-2,3.5217524E-1,-1.9995611E-2],"split_indices":[0,2,3,2,3,0,0,2,3,0,2,2,0,3,3,2,1,0,0,0,0,0,0,3,0,2,3,1,3,2,1,0,1,2,0,1,0,2,2,0,0,0,0,0,0,0,0,0,0,0,0,0,0,0,0,0,0],"split_type":[0,0,0,0,0,0,0,0,0,0,0,0,0,0,0,0,0,0,0,0,0,0,0,0,0,0,0,0,0,0,0,0,0,0,0,0,0,0,0,0,0,0,0,0,0,0,0,0,0,0,0,0,0,0,0,0,0],"sum_hessian":[3.0103882E2,2.0835788E2,9.2680954E1,2.0384142E2,4.5164685E0,1.4039777E1,7.8641174E1,2.0054988E2,3.291532E0,1.8294371E0,2.6870313E0,9.108818E0,4.930959E0,4.504023E1,3.360095E1,1.5857043E2,4.1979443E1,1.6345873E0,1.6569448E0,1.4180967E0,1.2689346E0,6.441109E0,2.6677082E0,4.2348576E1,2.691653E0,1.2724618E1,2.087633E1,1.3936618E2,1.9204254E1,3.0166006E1,1.1813435E1,2.366688E0,4.0744214E0,4.0429108E1,1.9194676E0,1.1618294E1,1.1063242E0,1.7929234E1,2.9470959E0,1.0982174E2,2.9544445E1,3.53584E0,1.5668413E1,1.2267347E1,1.7898659E1,5.436643E0,6.3767915E0,2.6263158E0,1.4481055E0,1.4403342E1,2.6025768E1,1.7112526E0,9.907042E0,9.552748E0,8.376487E0,1.2074434E0,1.7396525E0],"tree_param":{"num_deleted":"0","num_feature":"4","num_nodes":"57","size_leaf_vector":"1"}},{"base_weights":[-5.8586113E-3,1.0355541E-2,-6.524489E-2,1.5528462E-2,-1.24813326E-1,2.9985315E-1,-1.14005275E-1,-4.572931E-3,1.6967002E-1,-1.774721E-1,2.8298485E-1,-2.3479295E-1,5.515222E-2,-2.4353273E-2,1.2473433E-1,2.8783587E-1,-4.0905377E-1,1.1975928E-1,-5.522206E-1,-4.931201E-2,-5.848182E-1,-3.984567E-2,5.596944E-1,-9.525561E-3,-3.6686236E-1,2.3530962E-1,-2.3195437E-1,-9.790592E-2,3.6954576E-1,-2.7814445E-1,1.6503793E-1,-2.7425683E-1,2.2639807E-3,1.7898215E-1,-3.1389758E-1,-2.865534E-1,4.1891363E-2,-5.498871E-1,6.531661E-2,2.5226134E-1,1.281937E-2,-1.2820872E-2,2.6214162E-2,-2.5765812E-2,-2.687973E-1,1.27076E-1,9.379463E-3,2.0012857E-1,5.35192E-2,2.3400025E-1,-1.642982E-1,-7.4175365E-2,1.5723512E-1,9.842495E-2,-1.590768E-1,-1.0751589E-1,8.2608804E-2,1.9318019E-3,-2.2982652E-1,5.0831445E-2,-2.047377E-1],"categories":[],"categories_nodes":[],"categories_segments":[],"categories_sizes":[],"default_left":[0,0,0,0,0,0,0,0,0,0,0,0,0,0,0,0,0,0,0,0,0,0,0,0,0,0,0,0,0,0,0,0,0,0,0,0,0,0,0,0,0,0,0,0,0,0,0,0,0,0,0,0,0,0,0,0,0,0,0,0,0],"id":32,"left_children":[1,3,5,7,-1,9,11,13,15,17,-1,19,21,23,25,27,29,-1,31,33,35,37,39,41,43,45,-1,-1,47,-1,49,-1,-1,51,53,-1,55,57,59,-1,-1,-1,-1,-1,-1,-1,-1,-1,-1,-1,-1,-1,-1,-1,-1,-1,-1,-1,-1,-1,-1],"loss_changes":[2.8923076E-1,5.2759826E-1,1.1808051E0,7.2704613E-1,0E0,2.5826426E0,1.1887058E0,5.3589183E-1,1.9687469E0,1.3779976E0,0E0,2.163115E0,1.210119E0,9.1840905E-1,2.9424927E0,1.2781103E0,1.6409585E0,0E0,7.497351E-1,1.4551427E0,2.7329376E0,1.2046105E0,5.445149E-1,5.6700546E-1,1.0389513E0,9.6722853E-1,0E0,0E0,1.0654638E0,0E0,1.8393028E0,0E0,0E0,2.0522437E0,1.7144339E0,0E0,5.909555E-1,4.6568882E-1,1.5917077E0,0E0,0E0,0E0,0E0,0E0,0E0,0E0,0E0,0E0,0E0,0E0,0E0,0E0,0E0,0E0,0E0,0E0,0E0,0E0,0E0,0E0,0E0],"parents":[2147483647,0,0,1,1,2,2,3,3,5,5,6,6,7,7,8,8,9,9,11,11,12,12,13,13,14,14,15,15,16,16,18,18,19,19,20,20,21,21,22,22,23,23,24,24,25,25,28,28,30,30,33,33,34,34,36,36,37,37,38,38],"right_children":[2,4,6,8,-1,10,12,14,16,18,-1,20,22,24,26,28,30,-1,32,34,36,38,40,42,44,46,-1,-1,48,-1,50,-1,-1,52,54,-1,56,58,60,-1,-1,-1,-1,-1,-1,-1,-1,-1,-1,-1,-1,-1,-1,-1,-1,-1,-1,-1,-1,-1,-1],"split_conditions":[1.8E1,2E1,1E1,1.5E1,-1.24813326E-1,9E0,4E0,5E0,5E0,2E0,2.8298485E-1,3E0,6E0,1.4E1,6E0,1.2E1,4E0,1.1975928E-1,3E0,1.5E1,1.8E1,1.4E1,1.8E1,1.1E1,3E0,9E0,-2.3195437E-1,-9.790592E-2,1.6E1,-2.7814445E-1,5E0,-2.7425683E-1,2.2639807E-3,1.2E1,2E1,-2.865534E-1,2.2E1,2E0,2.4E1,2.5226134E-1,1.281937E-2,-1.2820872E-2,2.6214162E-2,-2.5765812E-2,-2.687973E-1,1.27076E-1,9.379463E-3,2.0012857E-1,5.35192E-2,2.3400025E-1,-1.642982E-1,-7.4175365E-2,1.5723512E-1,9.842495E-2,-1.590768E-1,-1.0751589E-1,8.2608804E-2,1.9318019E-3,-2.2982652E-1,5.0831445E-2,-2.047377E-1],"split_indices":[0,2,2,2,0,2,1,1,1,3,0,1,3,2,3,0,3,0,3,2,2,2,2,2,1,2,0,0,2,0,3,0,0,2,0,0,0,3,2,0,0,0,0,0,0,0,0,0,0,0,0,0,0,0,0,0,0,0,0,0,0],"split_type":[0,0,0,0,0,0,0,0,0,0,0,0,0,0,0,0,0,0,0,0,0,0,0,0,0,0,0,0,0,0,0,0,0,0,0,0,0,0,0,0,0,0,0,0,0,0,0,0,0,0,0,0,0,0,0,0,0,0,0,0,0],"sum_hessian":[2.9867355E2,2.3526509E2,6.340847E1,2.3339719E2,1.8679028E0,6.864011E0,5.6544456E1,2.073299E2,2.6067282E1,4.356408E0,2.5076027E0,3.2762344E1,2.3782112E1,1.8052618E2,2.680372E1,2.2064674E1,4.0026064E0,1.6902224E0,2.6661859E0,2.2160315E1,1.0602031E1,2.0788895E1,2.9932177E0,1.740204E2,6.505783E0,2.4521872E1,2.2818487E0,2.2392035E0,1.9825472E1,1.780655E0,2.2219512E0,1.2346499E0,1.431536E0,1.2069684E1,1.009063E1,6.3344903E0,4.2675405E0,2.8307414E0,1.7958155E1,1.5329086E0,1.4603091E0,1.3002019E2,4.400021E1,5.0085E0,1.4972831E0,1.2194117E1,1.2327756E1,6.780593E0,1.3044879E1,1.1420677E0,1.0798836E0,5.52726E0,6.5424247E0,2.4133441E0,7.6772857E0,1.3750451E0,2.8924956E0,1.0637438E0,1.7669976E0,1.6442133E1,1.5160202E0],"tree_param":{"num_deleted":"0","num_feature":"4","num_nodes":"61","size_leaf_vector":"1"}},{"base_weights":[-8.612813E-3,-6.004323E-3,-8.73256E-2,1.06192715E-1,-1.2052977E-2,3.4619574E-2,1.1733168E-1,5.9782907E-2,-2.0909334E-2,1.7986432E-1,-3.940694E-2,5.289726E-1,-2.7195996E-2,-5.071346E-1,-5.3831483E-3,1.7480397E-1,-1.2652813E-1,-1.7221378E-1,1.1891898E-1,2.2406818E-1,3.4226265E-2,1.9122079E-2,-1.8510975E-1,-8.8650477E-1,-1.567843E-1,-1.8653804E-2,9.544464E-2,5.8651153E-2,-1.3567981E-1,-7.715969E-2,1.1851969E-1,-2.565559E-2,1.2991779E-1,-5.7936188E-2,-3.4974316E-1,5.506706E-3,-1.2539488E-1,-1.6787896E-3,-3.9620683E-2,6.066597E-2,-9.1750264E-2],"categories":[],"categories_nodes":[],"categories_segments":[],"categories_sizes":[],"default_left":[0,0,0,0,0,0,0,0,0,0,0,0,0,0,0,0,0,0,0,0,0,0,0,0,0,0,0,0,0,0,0,0,0,0,0,0,0,0,0,0,0],"id":33,"left_children":[1,3,-1,5,7,9,-1,11,13,15,17,19,21,23,25,-1,27,-1,29,-1,-1,31,-1,33,35,37,39,-1,-1,-1,-1,-1,-1,-1,-1,-1,-1,-1,-1,-1,-1],"loss_changes":[2.1826683E-1,2.027592E-1,0E0,2.982277E-1,1.8103983E-1,1.5026307E-1,0E0,1.290729E0,1.902106E0,6.5074885E-1,8.8433975E-1,3.6143136E-1,7.5860703E-1,8.973446E-1,3.3030537E-1,0E0,4.531569E-1,0E0,9.6020734E-1,0E0,0E0,1.1768668E0,0E0,4.58241E-1,2.4868481E-1,3.2182035E-1,1.2924106E0,0E0,0E0,0E0,0E0,0E0,0E0,0E0,0E0,0E0,0E0,0E0,0E0,0E0,0E0],"parents":[2147483647,0,0,1,1,3,3,4,4,5,5,7,7,8,8,9,9,10,10,11,11,12,12,13,13,14,14,16,16,18,18,21,21,23,23,24,24,25,25,26,26],"right_children":[2,4,-1,6,8,10,-1,12,14,16,18,20,22,24,26,-1,28,-1,30,-1,-1,32,-1,34,36,38,40,-1,-1,-1,-1,-1,-1,-1,-1,-1,-1,-1,-1,-1,-1],"split_conditions":[3E1,4E0,-8.73256E-2,1.2E1,8E0,6E0,1.1733168E-1,5E0,5E0,1E0,1E0,2E0,6E0,2E0,5E0,1.7480397E-1,2E0,-1.7221378E-1,3E0,2.2406818E-1,3.4226265E-2,3E0,-1.8510975E-1,3E0,5E0,4E0,5E0,5.8651153E-2,-1.3567981E-1,-7.715969E-2,1.1851969E-1,-2.565559E-2,1.2991779E-1,-5.7936188E-2,-3.4974316E-1,5.506706E-3,-1.2539488E-1,-1.6787896E-3,-3.9620683E-2,6.066597E-2,-9.1750264E-2],"split_indices":[0,2,0,0,0,0,0,2,2,1,1,1,3,1,3,0,3,0,2,0,0,1,0,3,3,3,1,0,0,0,0,0,0,0,0,0,0,0,0,0,0],"split_type":[0,0,0,0,0,0,0,0,0,0,0,0,0,0,0,0,0,0,0,0,0,0,0,0,0,0,0,0,0,0,0,0,0,0,0,0,0,0,0,0,0],"sum_hessian":[2.975974E2,2.9588632E2,1.7111037E0,1.428864E1,2.815977E2,1.2316192E1,1.9724488E0,3.0275558E1,2.5132211E2,3.6752965E0,8.640895E0,3.940066E0,2.6335493E1,6.7971206E0,2.44525E2,1.1982319E0,2.4770646E0,1.374323E0,7.2665715E0,2.0585537E0,1.8815124E0,2.5315151E1,1.0203415E0,2.5286653E0,4.268455E0,2.1680478E2,2.7720215E1,1.4466679E0,1.0303967E0,3.1054685E0,4.1611032E0,2.0840265E1,4.474886E0,1.211791E0,1.3168743E0,3.1117063E0,1.1567491E0,1.9536154E2,2.1443247E1,2.22862E1,5.4340158E0],"tree_param":{"num_deleted":"0","num_feature":"4","num_nodes":"41","size_leaf_vector":"1"}},{"base_weights":[-7.179594E-3,1.846442E-1,-1.197337E-2,4.2077127E-1,-1.3986579E-1,1.6153848E-1,-1.4923126E-2,1.7100322E-1,6.055904E-2,-1.6882855E-1,1.03676446E-1,1.8664758E-1,-2.1212685E-1,-1.488295E-1,-6.077042E-3,-1.7366057E-2,-8.3465666E-2,-6.6942744E-2,-4.1697645E-1,8.148965E-2,-1.7655136E-2,-4.4014502E-1,4.8018906E-2,-3.7790433E-2,-1.5684082E-1,-7.4046915E-3,2.5175467E-1,-1.1366747E-2,-1.876636E-1,-4.410641E-2,-1.7065246E-1,8.478083E-2,-1.0795827E-1,-1.4312339E-1,4.191027E-2,2.4798329E-1,4.113117E-3,-2.4638608E-2,7.6828926E-4,-1.6550977E-2,-1.6370347E-1],"categories":[],"categories_nodes":[],"categories_segments":[],"categories_sizes":[],"default_left":[0,0,0,0,0,0,0,0,0,0,0,0,0,0,0,0,0,0,0,0,0,0,0,0,0,0,0,0,0,0,0,0,0,0,0,0,0,0,0,0,0],"id":34,"left_children":[1,3,5,7,9,11,13,-1,-1,-1,-1,-1,15,17,19,-1,-1,21,23,25,27,29,31,-1,-1,33,35,37,39,-1,-1,-1,-1,-1,-1,-1,-1,-1,-1,-1,-1],"loss_changes":[2.7598748E-1,6.197362E-1,1.515573E-1,3.150356E-2,9.814786E-1,9.849487E-1,3.3959365E-1,0E0,0E0,0E0,0E0,0E0,1.9389108E-2,3.6227745E-1,2.75869E-1,0E0,0E0,6.562958E-1,5.6278408E-2,4.8299426E-1,2.5433034E-1,5.1598728E-2,1.2708845E0,0E0,0E0,1.5766996E0,1.4846398E0,2.292522E-1,3.727247E-1,0E0,0E0,0E0,0E0,0E0,0E0,0E0,0E0,0E0,0E0,0E0,0E0],"parents":[2147483647,0,0,1,1,2,2,3,3,4,4,5,5,6,6,12,12,13,13,14,14,17,17,18,18,19,19,20,20,21,21,22,22,25,25,26,26,27,27,28,28],"right_children":[2,4,6,8,10,12,14,-1,-1,-1,-1,-1,16,18,20,-1,-1,22,24,26,28,30,32,-1,-1,34,36,38,40,-1,-1,-1,-1,-1,-1,-1,-1,-1,-1,-1,-1],"split_conditions":[3E0,2E0,4E0,1E0,8E0,2E0,5E0,1.7100322E-1,6.055904E-2,-1.6882855E-1,1.03676446E-1,1.8664758E-1,2E0,5E0,7E0,-1.7366057E-2,-8.3465666E-2,1E0,8E0,1.2E1,7E0,4E0,1.2E1,-3.7790433E-2,-1.5684082E-1,1E0,1E0,1E0,2E1,-4.410641E-2,-1.7065246E-1,8.478083E-2,-1.0795827E-1,-1.4312339E-1,4.191027E-2,2.4798329E-1,4.113117E-3,-2.4638608E-2,7.6828926E-4,-1.6550977E-2,-1.6370347E-1],"split_indices":[2,1,0,1,0,3,2,0,0,0,0,0,1,3,2,0,0,1,0,0,1,3,0,0,0,3,3,3,0,0,0,0,0,0,0,0,0,0,0,0,0],"split_type":[0,0,0,0,0,0,0,0,0,0,0,0,0,0,0,0,0,0,0,0,0,0,0,0,0,0,0,0,0,0,0,0,0,0,0,0,0,0,0,0,0],"sum_hessian":[2.9672562E2,6.3198094E0,2.904058E2,3.4863555E0,2.833454E0,3.9557476E0,2.8645004E2,1.1193548E0,2.3670006E0,1.4291887E0,1.4042652E0,1.473875E0,2.4818726E0,1.6770134E1,2.696799E2,1.3071673E0,1.1747054E0,1.3804242E1,2.965892E0,3.078798E1,2.3889194E2,2.5847363E0,1.1219505E1,1.3750403E0,1.5908517E0,2.0855803E1,9.932178E0,2.3139963E2,7.492306E0,1.4422363E0,1.1425E0,7.317903E0,3.9016025E0,4.439245E0,1.6416557E1,2.184439E0,7.7477384E0,3.7249725E1,1.941499E2,6.310881E0,1.1814249E0],"tree_param":{"num_deleted":"0","num_feature":"4","num_nodes":"41","size_leaf_vector":"1"}},{"base_weights":[-5.3666877E-3,1.5948002E-1,-9.433677E-3,1.1155559E-1,-1.057148E-1,-7.3973155E-3,-7.133893E-2,-1.2644553E-1,8.7804824E-2,-9.59068E-3,1.666261E-1,2.5205053E-3,-5.64544E-2,-7.8626145E-3,9.550012E-2,-2.783251E-2,5.1710702E-2,9.9828154E-2,-1.7780732E-1,-1.7784497E-2,1.052103E-1,3.150392E-2,-1.3923506E-1,1.7976364E-1,-4.818365E-3,-2.0690785E-1,1.6878013E-2],"categories":[],"categories_nodes":[],"categories_segments":[],"categories_sizes":[],"default_left":[0,0,0,0,0,0,0,0,0,0,0,0,0,0,0,0,0,0,0,0,0,0,0,0,0,0,0],"id":35,"left_children":[1,3,5,-1,7,9,-1,-1,-1,11,13,15,17,-1,-1,19,21,23,25,-1,-1,-1,-1,-1,-1,-1,-1],"loss_changes":[2.0053637E-1,4.450241E-1,1.3341022E-1,0E0,6.24319E-1,1.1195855E-1,0E0,0E0,0E0,1.6274019E-1,1.15216695E-1,3.4276083E-1,1.1343229E0,0E0,0E0,1.7114822E0,2.4568222E0,1.5359797E0,4.0526605E0,0E0,0E0,0E0,0E0,0E0,0E0,0E0,0E0],"parents":[2147483647,0,0,1,1,2,2,4,4,5,5,9,9,10,10,11,11,12,12,15,15,16,16,17,17,18,18],"right_children":[2,4,6,-1,8,10,-1,-1,-1,12,14,16,18,-1,-1,20,22,24,26,-1,-1,-1,-1,-1,-1,-1,-1],"split_conditions":[3E0,2E0,3E1,1.1155559E-1,8E0,2.5E1,-7.133893E-2,-1.2644553E-1,8.7804824E-2,1.8E1,2.4E1,3E0,3E0,-7.8626145E-3,9.550012E-2,5E0,6E0,1E1,4E0,-1.7784497E-2,1.052103E-1,3.150392E-2,-1.3923506E-1,1.7976364E-1,-4.818365E-3,-2.0690785E-1,1.6878013E-2],"split_indices":[2,1,0,0,0,2,0,0,0,0,0,1,1,0,0,3,3,2,1,0,0,0,0,0,0,0,0],"split_type":[0,0,0,0,0,0,0,0,0,0,0,0,0,0,0,0,0,0,0,0,0,0,0,0,0,0,0],"sum_hessian":[2.9587204E2,6.203734E0,2.896683E2,3.2216249E0,2.9821088E0,2.8813138E2,1.5369395E0,1.6312375E0,1.3508714E0,2.8547815E2,2.6532335E0,2.2760378E2,5.7874367E1,1.5325098E0,1.1207238E0,1.4102061E2,8.658317E1,2.537409E1,3.2500275E1,1.3098183E2,1.0038781E1,7.919598E1,7.3871927E0,3.9937773E0,2.1380314E1,9.587239E0,2.2913036E1],"tree_param":{"num_deleted":"0","num_feature":"4","num_nodes":"27","size_leaf_vector":"1"}},{"base_weights":[-4.0088305E-3,1.2859072E-1,-7.216132E-3,-4.728601E-2,1.212387E-1,1.517663E-1,-9.826256E-3,6.085426E-2,-1.0224906E-1,1.7149359E-1,-2.0242995E-1,-1.3794003E-1,-1.4775733E-3,9.9862255E-3,-9.671472E-2,-6.089405E-2,-3.9423117E-1,5.029239E-2,-1.4078681E-2,-1.9209868E-1,2.2510229E-1,-4.4099748E-2,-1.4234804E-1,8.873787E-2,-1.488963E-1,-9.531218E-3,-2.89962E-1,-1.4855942E-1,-2.4624214E-2,1.924903E-1,-3.898777E-2,5.007514E-3,8.8672295E-2,5.3617414E-2,-9.592663E-2,-4.3697443E-2,-5.605323E-4,-1.1601666E-1,-1.0995098E-2],"categories":[],"categories_nodes":[],"categories_segments":[],"categories_sizes":[],"default_left":[0,0,0,0,0,0,0,0,0,0,0,0,0,0,0,0,0,0,0,0,0,0,0,0,0,0,0,0,0,0,0,0,0,0,0,0,0,0,0],"id":36,"left_children":[1,3,5,7,-1,9,11,-1,-1,-1,13,15,17,-1,-1,19,21,23,25,27,29,-1,-1,31,33,35,37,-1,-1,-1,-1,-1,-1,-1,-1,-1,-1,-1,-1],"loss_changes":[1.2677637E-1,3.6035287E-1,1.2177797E-1,4.5046178E-1,0E0,8.210915E-1,3.0583516E-1,0E0,0E0,0E0,1.04355186E-1,3.214416E-1,1.7660706E-1,0E0,0E0,5.9235E-1,6.863177E-3,4.190955E-1,2.7027264E-1,3.1185833E-1,8.321028E-1,0E0,0E0,6.6644347E-1,5.5804646E-1,2.2414088E-1,7.149446E-2,0E0,0E0,0E0,0E0,0E0,0E0,0E0,0E0,0E0,0E0,0E0,0E0],"parents":[2147483647,0,0,1,1,2,2,3,3,5,5,6,6,10,10,11,11,12,12,15,15,16,16,17,17,18,18,19,19,20,20,23,23,24,24,25,25,26,26],"right_children":[2,4,6,8,-1,10,12,-1,-1,-1,14,16,18,-1,-1,20,22,24,26,28,30,-1,-1,32,34,36,38,-1,-1,-1,-1,-1,-1,-1,-1,-1,-1,-1,-1],"split_conditions":[3E0,2E0,4E0,2E0,1.212387E-1,5E0,5E0,6.085426E-2,-1.0224906E-1,1.7149359E-1,6E0,5E0,8E0,9.9862255E-3,-9.671472E-2,3E0,4E0,1.4E1,8E0,6E0,1.2E1,-4.4099748E-2,-1.4234804E-1,1.2E1,6E0,8E0,1.4E1,-1.4855942E-1,-2.4624214E-2,1.924903E-1,-3.898777E-2,5.007514E-3,8.8672295E-2,5.3617414E-2,-9.592663E-2,-4.3697443E-2,-5.605323E-4,-1.1601666E-1,-1.0995098E-2],"split_indices":[2,3,0,1,0,2,2,0,0,0,2,3,2,0,0,1,2,0,1,0,0,0,0,0,2,0,2,0,0,0,0,0,0,0,0,0,0,0,0],"split_type":[0,0,0,0,0,0,0,0,0,0,0,0,0,0,0,0,0,0,0,0,0,0,0,0,0,0,0,0,0,0,0,0,0,0,0,0,0,0,0],"sum_hessian":[2.9491434E2,6.041638E0,2.8887268E2,4.1933804E0,1.8482575E0,3.7429774E0,2.851297E2,2.4309237E0,1.7624565E0,1.4317725E0,2.311205E0,1.6494396E1,2.686353E2,1.0231392E0,1.2880657E0,1.3633503E1,2.8608935E0,5.2001793E1,2.1663351E2,9.570998E0,4.062505E0,1.3950877E0,1.4658056E0,4.4053513E1,7.948281E0,2.1413837E2,2.4951556E0,1.6164938E0,7.9545045E0,1.4980251E0,2.5644798E0,3.34743E1,1.0579213E1,2.7085745E0,5.239706E0,1.04520645E1,2.036863E2,1.4243975E0,1.0707582E0],"tree_param":{"num_deleted":"0","num_feature":"4","num_nodes":"39","size_leaf_vector":"1"}},{"base_weights":[-3.0569627E-3,4.581842E-2,-1.0409567E-2,7.014486E-2,-1.2596154E-1,1.6284171E-1,-1.4854595E-2,2.7193744E-2,3.045949E-1,-7.371429E-2,1.1816586E-1,-3.4051418E-1,-4.4532777E-3,1.01015486E-1,-2.2336742E-1,2.4372305E-1,-3.8268903E-1,1.194298E-1,-1.8568781E-1,-6.388502E-1,-5.687595E-2,3.3793844E-2,-2.0861063E-2,-1.0715606E-2,2.161208E-1,-2.1546698E-1,3.9120734E-2,-3.8545053E-2,-2.5618592E-1,-7.82468E-2,1.1716921E-1,-7.0954666E-2,3.2311988E-1,-1.0522105E-1,3.7197065E-2,4.0981084E-2,-2.775403E-1,-3.5311613E-2,1.2403301E-1,1.0861782E-1,-6.995185E-2,4.0314704E-2,-9.114385E-2,-8.72814E-2,1.3682443E-1,-2.3226997E-2,-2.392854E-1,3.7300147E-2,-3.0029899E-2],"categories":[],"categories_nodes":[],"categories_segments":[],"categories_sizes":[],"default_left":[0,0,0,0,0,0,0,0,0,0,0,0,0,0,0,0,0,0,0,0,0,0,0,0,0,0,0,0,0,0,0,0,0,0,0,0,0,0,0,0,0,0,0,0,0,0,0,0,0],"id":37,"left_children":[1,3,5,7,-1,9,11,13,15,17,-1,19,21,23,-1,-1,25,-1,-1,27,29,31,33,35,37,-1,-1,-1,-1,-1,39,41,43,45,47,-1,-1,-1,-1,-1,-1,-1,-1,-1,-1,-1,-1,-1,-1],"loss_changes":[1.0661726E-1,4.6908474E-1,2.0076057E-1,3.7173128E-1,0E0,3.8572225E-1,8.5216385E-1,1.9548705E0,2.315997E0,1.2926534E0,0E0,6.226041E-1,1.5460394E-1,4.0090925E-1,0E0,0E0,6.3095814E-1,0E0,0E0,2.9619527E-1,2.1122064E-1,2.2657182E0,8.474778E-1,2.3733184E0,1.0573621E0,0E0,0E0,0E0,0E0,0E0,3.7922657E-1,2.677925E0,1.7534387E0,1.2946626E0,1.2418225E0,0E0,0E0,0E0,0E0,0E0,0E0,0E0,0E0,0E0,0E0,0E0,0E0,0E0,0E0],"parents":[2147483647,0,0,1,1,2,2,3,3,5,5,6,6,7,7,8,8,9,9,11,11,12,12,13,13,16,16,19,19,20,20,21,21,22,22,23,23,24,24,30,30,31,31,32,32,33,33,34,34],"right_children":[2,4,6,8,-1,10,12,14,16,18,-1,20,22,24,-1,-1,26,-1,-1,28,30,32,34,36,38,-1,-1,-1,-1,-1,40,42,44,46,48,-1,-1,-1,-1,-1,-1,-1,-1,-1,-1,-1,-1,-1,-1],"split_conditions":[8E0,6E0,4E0,1E1,-1.2596154E-1,2E0,5E0,9E0,2E0,1E0,1.1816586E-1,2E0,2E0,2E0,-2.2336742E-1,2.4372305E-1,3E0,1.194298E-1,-1.8568781E-1,3E0,3E0,3E0,1.1E1,8E0,5E0,-2.1546698E-1,3.9120734E-2,-3.8545053E-2,-2.5618592E-1,-7.82468E-2,5E0,1.4E1,1E1,2E1,3E0,4.0981084E-2,-2.775403E-1,-3.5311613E-2,1.2403301E-1,1.0861782E-1,-6.995185E-2,4.0314704E-2,-9.114385E-2,-8.72814E-2,1.3682443E-1,-2.3226997E-2,-2.392854E-1,3.7300147E-2,-3.0029899E-2],"split_indices":[0,3,2,2,0,3,2,2,1,3,0,1,1,1,0,0,1,0,0,3,3,3,2,2,2,0,0,0,0,0,3,0,0,0,3,0,0,0,0,0,0,0,0,0,0,0,0,0,0],"split_type":[0,0,0,0,0,0,0,0,0,0,0,0,0,0,0,0,0,0,0,0,0,0,0,0,0,0,0,0,0,0,0,0,0,0,0,0,0,0,0,0,0,0,0,0,0,0,0,0,0],"sum_hessian":[2.943582E2,3.780739E1,2.5655078E2,3.6737682E1,1.0697064E0,5.526164E0,2.5102463E2,3.1992638E1,4.745044E0,3.0669768E0,2.4591873E0,6.787085E0,2.4423755E2,2.9992792E1,